tree
version=v4
num_class=3
num_tree_per_iteration=3
label_index=0
max_feature_idx=2306
objective=multiclass num_class:3
feature_names=Column_0 Column_1 Column_2 Column_3 Column_4 Column_5 Column_6 Column_7 Column_8 Column_9 Column_10 Column_11 Column_12 Column_13 Column_14 Column_15 Column_16 Column_17 Column_18 Column_19 Column_20 Column_21 Column_22 Column_23 Column_24 Column_25 Column_26 Column_27 Column_28 Column_29 Column_30 Column_31 Column_32 Column_33 Column_34 Column_35 Column_36 Column_37 Column_38 Column_39 Column_40 Column_41 Column_42 Column_43 Column_44 Column_45 Column_46 Column_47 Column_48 Column_49 Column_50 Column_51 Column_52 Column_53 Column_54 Column_55 Column_56 Column_57 Column_58 Column_59 Column_60 Column_61 Column_62 Column_63 Column_64 Column_65 Column_66 Column_67 Column_68 Column_69 Column_70 Column_71 Column_72 Column_73 Column_74 Column_75 Column_76 Column_77 Column_78 Column_79 Column_80 Column_81 Column_82 Column_83 Column_84 Column_85 Column_86 Column_87 Column_88 Column_89 Column_90 Column_91 Column_92 Column_93 Column_94 Column_95 Column_96 Column_97 Column_98 Column_99 Column_100 Column_101 Column_102 Column_103 Column_104 Column_105 Column_106 Column_107 Column_108 Column_109 Column_110 Column_111 Column_112 Column_113 Column_114 Column_115 Column_116 Column_117 Column_118 Column_119 Column_120 Column_121 Column_122 Column_123 Column_124 Column_125 Column_126 Column_127 Column_128 Column_129 Column_130 Column_131 Column_132 Column_133 Column_134 Column_135 Column_136 Column_137 Column_138 Column_139 Column_140 Column_141 Column_142 Column_143 Column_144 Column_145 Column_146 Column_147 Column_148 Column_149 Column_150 Column_151 Column_152 Column_153 Column_154 Column_155 Column_156 Column_157 Column_158 Column_159 Column_160 Column_161 Column_162 Column_163 Column_164 Column_165 Column_166 Column_167 Column_168 Column_169 Column_170 Column_171 Column_172 Column_173 Column_174 Column_175 Column_176 Column_177 Column_178 Column_179 Column_180 Column_181 Column_182 Column_183 Column_184 Column_185 Column_186 Column_187 Column_188 Column_189 Column_190 Column_191 Column_192 Column_193 Column_194 Column_195 Column_196 Column_197 Column_198 Column_199 Column_200 Column_201 Column_202 Column_203 Column_204 Column_205 Column_206 Column_207 Column_208 Column_209 Column_210 Column_211 Column_212 Column_213 Column_214 Column_215 Column_216 Column_217 Column_218 Column_219 Column_220 Column_221 Column_222 Column_223 Column_224 Column_225 Column_226 Column_227 Column_228 Column_229 Column_230 Column_231 Column_232 Column_233 Column_234 Column_235 Column_236 Column_237 Column_238 Column_239 Column_240 Column_241 Column_242 Column_243 Column_244 Column_245 Column_246 Column_247 Column_248 Column_249 Column_250 Column_251 Column_252 Column_253 Column_254 Column_255 Column_256 Column_257 Column_258 Column_259 Column_260 Column_261 Column_262 Column_263 Column_264 Column_265 Column_266 Column_267 Column_268 Column_269 Column_270 Column_271 Column_272 Column_273 Column_274 Column_275 Column_276 Column_277 Column_278 Column_279 Column_280 Column_281 Column_282 Column_283 Column_284 Column_285 Column_286 Column_287 Column_288 Column_289 Column_290 Column_291 Column_292 Column_293 Column_294 Column_295 Column_296 Column_297 Column_298 Column_299 Column_300 Column_301 Column_302 Column_303 Column_304 Column_305 Column_306 Column_307 Column_308 Column_309 Column_310 Column_311 Column_312 Column_313 Column_314 Column_315 Column_316 Column_317 Column_318 Column_319 Column_320 Column_321 Column_322 Column_323 Column_324 Column_325 Column_326 Column_327 Column_328 Column_329 Column_330 Column_331 Column_332 Column_333 Column_334 Column_335 Column_336 Column_337 Column_338 Column_339 Column_340 Column_341 Column_342 Column_343 Column_344 Column_345 Column_346 Column_347 Column_348 Column_349 Column_350 Column_351 Column_352 Column_353 Column_354 Column_355 Column_356 Column_357 Column_358 Column_359 Column_360 Column_361 Column_362 Column_363 Column_364 Column_365 Column_366 Column_367 Column_368 Column_369 Column_370 Column_371 Column_372 Column_373 Column_374 Column_375 Column_376 Column_377 Column_378 Column_379 Column_380 Column_381 Column_382 Column_383 Column_384 Column_385 Column_386 Column_387 Column_388 Column_389 Column_390 Column_391 Column_392 Column_393 Column_394 Column_395 Column_396 Column_397 Column_398 Column_399 Column_400 Column_401 Column_402 Column_403 Column_404 Column_405 Column_406 Column_407 Column_408 Column_409 Column_410 Column_411 Column_412 Column_413 Column_414 Column_415 Column_416 Column_417 Column_418 Column_419 Column_420 Column_421 Column_422 Column_423 Column_424 Column_425 Column_426 Column_427 Column_428 Column_429 Column_430 Column_431 Column_432 Column_433 Column_434 Column_435 Column_436 Column_437 Column_438 Column_439 Column_440 Column_441 Column_442 Column_443 Column_444 Column_445 Column_446 Column_447 Column_448 Column_449 Column_450 Column_451 Column_452 Column_453 Column_454 Column_455 Column_456 Column_457 Column_458 Column_459 Column_460 Column_461 Column_462 Column_463 Column_464 Column_465 Column_466 Column_467 Column_468 Column_469 Column_470 Column_471 Column_472 Column_473 Column_474 Column_475 Column_476 Column_477 Column_478 Column_479 Column_480 Column_481 Column_482 Column_483 Column_484 Column_485 Column_486 Column_487 Column_488 Column_489 Column_490 Column_491 Column_492 Column_493 Column_494 Column_495 Column_496 Column_497 Column_498 Column_499 Column_500 Column_501 Column_502 Column_503 Column_504 Column_505 Column_506 Column_507 Column_508 Column_509 Column_510 Column_511 Column_512 Column_513 Column_514 Column_515 Column_516 Column_517 Column_518 Column_519 Column_520 Column_521 Column_522 Column_523 Column_524 Column_525 Column_526 Column_527 Column_528 Column_529 Column_530 Column_531 Column_532 Column_533 Column_534 Column_535 Column_536 Column_537 Column_538 Column_539 Column_540 Column_541 Column_542 Column_543 Column_544 Column_545 Column_546 Column_547 Column_548 Column_549 Column_550 Column_551 Column_552 Column_553 Column_554 Column_555 Column_556 Column_557 Column_558 Column_559 Column_560 Column_561 Column_562 Column_563 Column_564 Column_565 Column_566 Column_567 Column_568 Column_569 Column_570 Column_571 Column_572 Column_573 Column_574 Column_575 Column_576 Column_577 Column_578 Column_579 Column_580 Column_581 Column_582 Column_583 Column_584 Column_585 Column_586 Column_587 Column_588 Column_589 Column_590 Column_591 Column_592 Column_593 Column_594 Column_595 Column_596 Column_597 Column_598 Column_599 Column_600 Column_601 Column_602 Column_603 Column_604 Column_605 Column_606 Column_607 Column_608 Column_609 Column_610 Column_611 Column_612 Column_613 Column_614 Column_615 Column_616 Column_617 Column_618 Column_619 Column_620 Column_621 Column_622 Column_623 Column_624 Column_625 Column_626 Column_627 Column_628 Column_629 Column_630 Column_631 Column_632 Column_633 Column_634 Column_635 Column_636 Column_637 Column_638 Column_639 Column_640 Column_641 Column_642 Column_643 Column_644 Column_645 Column_646 Column_647 Column_648 Column_649 Column_650 Column_651 Column_652 Column_653 Column_654 Column_655 Column_656 Column_657 Column_658 Column_659 Column_660 Column_661 Column_662 Column_663 Column_664 Column_665 Column_666 Column_667 Column_668 Column_669 Column_670 Column_671 Column_672 Column_673 Column_674 Column_675 Column_676 Column_677 Column_678 Column_679 Column_680 Column_681 Column_682 Column_683 Column_684 Column_685 Column_686 Column_687 Column_688 Column_689 Column_690 Column_691 Column_692 Column_693 Column_694 Column_695 Column_696 Column_697 Column_698 Column_699 Column_700 Column_701 Column_702 Column_703 Column_704 Column_705 Column_706 Column_707 Column_708 Column_709 Column_710 Column_711 Column_712 Column_713 Column_714 Column_715 Column_716 Column_717 Column_718 Column_719 Column_720 Column_721 Column_722 Column_723 Column_724 Column_725 Column_726 Column_727 Column_728 Column_729 Column_730 Column_731 Column_732 Column_733 Column_734 Column_735 Column_736 Column_737 Column_738 Column_739 Column_740 Column_741 Column_742 Column_743 Column_744 Column_745 Column_746 Column_747 Column_748 Column_749 Column_750 Column_751 Column_752 Column_753 Column_754 Column_755 Column_756 Column_757 Column_758 Column_759 Column_760 Column_761 Column_762 Column_763 Column_764 Column_765 Column_766 Column_767 Column_768 Column_769 Column_770 Column_771 Column_772 Column_773 Column_774 Column_775 Column_776 Column_777 Column_778 Column_779 Column_780 Column_781 Column_782 Column_783 Column_784 Column_785 Column_786 Column_787 Column_788 Column_789 Column_790 Column_791 Column_792 Column_793 Column_794 Column_795 Column_796 Column_797 Column_798 Column_799 Column_800 Column_801 Column_802 Column_803 Column_804 Column_805 Column_806 Column_807 Column_808 Column_809 Column_810 Column_811 Column_812 Column_813 Column_814 Column_815 Column_816 Column_817 Column_818 Column_819 Column_820 Column_821 Column_822 Column_823 Column_824 Column_825 Column_826 Column_827 Column_828 Column_829 Column_830 Column_831 Column_832 Column_833 Column_834 Column_835 Column_836 Column_837 Column_838 Column_839 Column_840 Column_841 Column_842 Column_843 Column_844 Column_845 Column_846 Column_847 Column_848 Column_849 Column_850 Column_851 Column_852 Column_853 Column_854 Column_855 Column_856 Column_857 Column_858 Column_859 Column_860 Column_861 Column_862 Column_863 Column_864 Column_865 Column_866 Column_867 Column_868 Column_869 Column_870 Column_871 Column_872 Column_873 Column_874 Column_875 Column_876 Column_877 Column_878 Column_879 Column_880 Column_881 Column_882 Column_883 Column_884 Column_885 Column_886 Column_887 Column_888 Column_889 Column_890 Column_891 Column_892 Column_893 Column_894 Column_895 Column_896 Column_897 Column_898 Column_899 Column_900 Column_901 Column_902 Column_903 Column_904 Column_905 Column_906 Column_907 Column_908 Column_909 Column_910 Column_911 Column_912 Column_913 Column_914 Column_915 Column_916 Column_917 Column_918 Column_919 Column_920 Column_921 Column_922 Column_923 Column_924 Column_925 Column_926 Column_927 Column_928 Column_929 Column_930 Column_931 Column_932 Column_933 Column_934 Column_935 Column_936 Column_937 Column_938 Column_939 Column_940 Column_941 Column_942 Column_943 Column_944 Column_945 Column_946 Column_947 Column_948 Column_949 Column_950 Column_951 Column_952 Column_953 Column_954 Column_955 Column_956 Column_957 Column_958 Column_959 Column_960 Column_961 Column_962 Column_963 Column_964 Column_965 Column_966 Column_967 Column_968 Column_969 Column_970 Column_971 Column_972 Column_973 Column_974 Column_975 Column_976 Column_977 Column_978 Column_979 Column_980 Column_981 Column_982 Column_983 Column_984 Column_985 Column_986 Column_987 Column_988 Column_989 Column_990 Column_991 Column_992 Column_993 Column_994 Column_995 Column_996 Column_997 Column_998 Column_999 Column_1000 Column_1001 Column_1002 Column_1003 Column_1004 Column_1005 Column_1006 Column_1007 Column_1008 Column_1009 Column_1010 Column_1011 Column_1012 Column_1013 Column_1014 Column_1015 Column_1016 Column_1017 Column_1018 Column_1019 Column_1020 Column_1021 Column_1022 Column_1023 Column_1024 Column_1025 Column_1026 Column_1027 Column_1028 Column_1029 Column_1030 Column_1031 Column_1032 Column_1033 Column_1034 Column_1035 Column_1036 Column_1037 Column_1038 Column_1039 Column_1040 Column_1041 Column_1042 Column_1043 Column_1044 Column_1045 Column_1046 Column_1047 Column_1048 Column_1049 Column_1050 Column_1051 Column_1052 Column_1053 Column_1054 Column_1055 Column_1056 Column_1057 Column_1058 Column_1059 Column_1060 Column_1061 Column_1062 Column_1063 Column_1064 Column_1065 Column_1066 Column_1067 Column_1068 Column_1069 Column_1070 Column_1071 Column_1072 Column_1073 Column_1074 Column_1075 Column_1076 Column_1077 Column_1078 Column_1079 Column_1080 Column_1081 Column_1082 Column_1083 Column_1084 Column_1085 Column_1086 Column_1087 Column_1088 Column_1089 Column_1090 Column_1091 Column_1092 Column_1093 Column_1094 Column_1095 Column_1096 Column_1097 Column_1098 Column_1099 Column_1100 Column_1101 Column_1102 Column_1103 Column_1104 Column_1105 Column_1106 Column_1107 Column_1108 Column_1109 Column_1110 Column_1111 Column_1112 Column_1113 Column_1114 Column_1115 Column_1116 Column_1117 Column_1118 Column_1119 Column_1120 Column_1121 Column_1122 Column_1123 Column_1124 Column_1125 Column_1126 Column_1127 Column_1128 Column_1129 Column_1130 Column_1131 Column_1132 Column_1133 Column_1134 Column_1135 Column_1136 Column_1137 Column_1138 Column_1139 Column_1140 Column_1141 Column_1142 Column_1143 Column_1144 Column_1145 Column_1146 Column_1147 Column_1148 Column_1149 Column_1150 Column_1151 Column_1152 Column_1153 Column_1154 Column_1155 Column_1156 Column_1157 Column_1158 Column_1159 Column_1160 Column_1161 Column_1162 Column_1163 Column_1164 Column_1165 Column_1166 Column_1167 Column_1168 Column_1169 Column_1170 Column_1171 Column_1172 Column_1173 Column_1174 Column_1175 Column_1176 Column_1177 Column_1178 Column_1179 Column_1180 Column_1181 Column_1182 Column_1183 Column_1184 Column_1185 Column_1186 Column_1187 Column_1188 Column_1189 Column_1190 Column_1191 Column_1192 Column_1193 Column_1194 Column_1195 Column_1196 Column_1197 Column_1198 Column_1199 Column_1200 Column_1201 Column_1202 Column_1203 Column_1204 Column_1205 Column_1206 Column_1207 Column_1208 Column_1209 Column_1210 Column_1211 Column_1212 Column_1213 Column_1214 Column_1215 Column_1216 Column_1217 Column_1218 Column_1219 Column_1220 Column_1221 Column_1222 Column_1223 Column_1224 Column_1225 Column_1226 Column_1227 Column_1228 Column_1229 Column_1230 Column_1231 Column_1232 Column_1233 Column_1234 Column_1235 Column_1236 Column_1237 Column_1238 Column_1239 Column_1240 Column_1241 Column_1242 Column_1243 Column_1244 Column_1245 Column_1246 Column_1247 Column_1248 Column_1249 Column_1250 Column_1251 Column_1252 Column_1253 Column_1254 Column_1255 Column_1256 Column_1257 Column_1258 Column_1259 Column_1260 Column_1261 Column_1262 Column_1263 Column_1264 Column_1265 Column_1266 Column_1267 Column_1268 Column_1269 Column_1270 Column_1271 Column_1272 Column_1273 Column_1274 Column_1275 Column_1276 Column_1277 Column_1278 Column_1279 Column_1280 Column_1281 Column_1282 Column_1283 Column_1284 Column_1285 Column_1286 Column_1287 Column_1288 Column_1289 Column_1290 Column_1291 Column_1292 Column_1293 Column_1294 Column_1295 Column_1296 Column_1297 Column_1298 Column_1299 Column_1300 Column_1301 Column_1302 Column_1303 Column_1304 Column_1305 Column_1306 Column_1307 Column_1308 Column_1309 Column_1310 Column_1311 Column_1312 Column_1313 Column_1314 Column_1315 Column_1316 Column_1317 Column_1318 Column_1319 Column_1320 Column_1321 Column_1322 Column_1323 Column_1324 Column_1325 Column_1326 Column_1327 Column_1328 Column_1329 Column_1330 Column_1331 Column_1332 Column_1333 Column_1334 Column_1335 Column_1336 Column_1337 Column_1338 Column_1339 Column_1340 Column_1341 Column_1342 Column_1343 Column_1344 Column_1345 Column_1346 Column_1347 Column_1348 Column_1349 Column_1350 Column_1351 Column_1352 Column_1353 Column_1354 Column_1355 Column_1356 Column_1357 Column_1358 Column_1359 Column_1360 Column_1361 Column_1362 Column_1363 Column_1364 Column_1365 Column_1366 Column_1367 Column_1368 Column_1369 Column_1370 Column_1371 Column_1372 Column_1373 Column_1374 Column_1375 Column_1376 Column_1377 Column_1378 Column_1379 Column_1380 Column_1381 Column_1382 Column_1383 Column_1384 Column_1385 Column_1386 Column_1387 Column_1388 Column_1389 Column_1390 Column_1391 Column_1392 Column_1393 Column_1394 Column_1395 Column_1396 Column_1397 Column_1398 Column_1399 Column_1400 Column_1401 Column_1402 Column_1403 Column_1404 Column_1405 Column_1406 Column_1407 Column_1408 Column_1409 Column_1410 Column_1411 Column_1412 Column_1413 Column_1414 Column_1415 Column_1416 Column_1417 Column_1418 Column_1419 Column_1420 Column_1421 Column_1422 Column_1423 Column_1424 Column_1425 Column_1426 Column_1427 Column_1428 Column_1429 Column_1430 Column_1431 Column_1432 Column_1433 Column_1434 Column_1435 Column_1436 Column_1437 Column_1438 Column_1439 Column_1440 Column_1441 Column_1442 Column_1443 Column_1444 Column_1445 Column_1446 Column_1447 Column_1448 Column_1449 Column_1450 Column_1451 Column_1452 Column_1453 Column_1454 Column_1455 Column_1456 Column_1457 Column_1458 Column_1459 Column_1460 Column_1461 Column_1462 Column_1463 Column_1464 Column_1465 Column_1466 Column_1467 Column_1468 Column_1469 Column_1470 Column_1471 Column_1472 Column_1473 Column_1474 Column_1475 Column_1476 Column_1477 Column_1478 Column_1479 Column_1480 Column_1481 Column_1482 Column_1483 Column_1484 Column_1485 Column_1486 Column_1487 Column_1488 Column_1489 Column_1490 Column_1491 Column_1492 Column_1493 Column_1494 Column_1495 Column_1496 Column_1497 Column_1498 Column_1499 Column_1500 Column_1501 Column_1502 Column_1503 Column_1504 Column_1505 Column_1506 Column_1507 Column_1508 Column_1509 Column_1510 Column_1511 Column_1512 Column_1513 Column_1514 Column_1515 Column_1516 Column_1517 Column_1518 Column_1519 Column_1520 Column_1521 Column_1522 Column_1523 Column_1524 Column_1525 Column_1526 Column_1527 Column_1528 Column_1529 Column_1530 Column_1531 Column_1532 Column_1533 Column_1534 Column_1535 Column_1536 Column_1537 Column_1538 Column_1539 Column_1540 Column_1541 Column_1542 Column_1543 Column_1544 Column_1545 Column_1546 Column_1547 Column_1548 Column_1549 Column_1550 Column_1551 Column_1552 Column_1553 Column_1554 Column_1555 Column_1556 Column_1557 Column_1558 Column_1559 Column_1560 Column_1561 Column_1562 Column_1563 Column_1564 Column_1565 Column_1566 Column_1567 Column_1568 Column_1569 Column_1570 Column_1571 Column_1572 Column_1573 Column_1574 Column_1575 Column_1576 Column_1577 Column_1578 Column_1579 Column_1580 Column_1581 Column_1582 Column_1583 Column_1584 Column_1585 Column_1586 Column_1587 Column_1588 Column_1589 Column_1590 Column_1591 Column_1592 Column_1593 Column_1594 Column_1595 Column_1596 Column_1597 Column_1598 Column_1599 Column_1600 Column_1601 Column_1602 Column_1603 Column_1604 Column_1605 Column_1606 Column_1607 Column_1608 Column_1609 Column_1610 Column_1611 Column_1612 Column_1613 Column_1614 Column_1615 Column_1616 Column_1617 Column_1618 Column_1619 Column_1620 Column_1621 Column_1622 Column_1623 Column_1624 Column_1625 Column_1626 Column_1627 Column_1628 Column_1629 Column_1630 Column_1631 Column_1632 Column_1633 Column_1634 Column_1635 Column_1636 Column_1637 Column_1638 Column_1639 Column_1640 Column_1641 Column_1642 Column_1643 Column_1644 Column_1645 Column_1646 Column_1647 Column_1648 Column_1649 Column_1650 Column_1651 Column_1652 Column_1653 Column_1654 Column_1655 Column_1656 Column_1657 Column_1658 Column_1659 Column_1660 Column_1661 Column_1662 Column_1663 Column_1664 Column_1665 Column_1666 Column_1667 Column_1668 Column_1669 Column_1670 Column_1671 Column_1672 Column_1673 Column_1674 Column_1675 Column_1676 Column_1677 Column_1678 Column_1679 Column_1680 Column_1681 Column_1682 Column_1683 Column_1684 Column_1685 Column_1686 Column_1687 Column_1688 Column_1689 Column_1690 Column_1691 Column_1692 Column_1693 Column_1694 Column_1695 Column_1696 Column_1697 Column_1698 Column_1699 Column_1700 Column_1701 Column_1702 Column_1703 Column_1704 Column_1705 Column_1706 Column_1707 Column_1708 Column_1709 Column_1710 Column_1711 Column_1712 Column_1713 Column_1714 Column_1715 Column_1716 Column_1717 Column_1718 Column_1719 Column_1720 Column_1721 Column_1722 Column_1723 Column_1724 Column_1725 Column_1726 Column_1727 Column_1728 Column_1729 Column_1730 Column_1731 Column_1732 Column_1733 Column_1734 Column_1735 Column_1736 Column_1737 Column_1738 Column_1739 Column_1740 Column_1741 Column_1742 Column_1743 Column_1744 Column_1745 Column_1746 Column_1747 Column_1748 Column_1749 Column_1750 Column_1751 Column_1752 Column_1753 Column_1754 Column_1755 Column_1756 Column_1757 Column_1758 Column_1759 Column_1760 Column_1761 Column_1762 Column_1763 Column_1764 Column_1765 Column_1766 Column_1767 Column_1768 Column_1769 Column_1770 Column_1771 Column_1772 Column_1773 Column_1774 Column_1775 Column_1776 Column_1777 Column_1778 Column_1779 Column_1780 Column_1781 Column_1782 Column_1783 Column_1784 Column_1785 Column_1786 Column_1787 Column_1788 Column_1789 Column_1790 Column_1791 Column_1792 Column_1793 Column_1794 Column_1795 Column_1796 Column_1797 Column_1798 Column_1799 Column_1800 Column_1801 Column_1802 Column_1803 Column_1804 Column_1805 Column_1806 Column_1807 Column_1808 Column_1809 Column_1810 Column_1811 Column_1812 Column_1813 Column_1814 Column_1815 Column_1816 Column_1817 Column_1818 Column_1819 Column_1820 Column_1821 Column_1822 Column_1823 Column_1824 Column_1825 Column_1826 Column_1827 Column_1828 Column_1829 Column_1830 Column_1831 Column_1832 Column_1833 Column_1834 Column_1835 Column_1836 Column_1837 Column_1838 Column_1839 Column_1840 Column_1841 Column_1842 Column_1843 Column_1844 Column_1845 Column_1846 Column_1847 Column_1848 Column_1849 Column_1850 Column_1851 Column_1852 Column_1853 Column_1854 Column_1855 Column_1856 Column_1857 Column_1858 Column_1859 Column_1860 Column_1861 Column_1862 Column_1863 Column_1864 Column_1865 Column_1866 Column_1867 Column_1868 Column_1869 Column_1870 Column_1871 Column_1872 Column_1873 Column_1874 Column_1875 Column_1876 Column_1877 Column_1878 Column_1879 Column_1880 Column_1881 Column_1882 Column_1883 Column_1884 Column_1885 Column_1886 Column_1887 Column_1888 Column_1889 Column_1890 Column_1891 Column_1892 Column_1893 Column_1894 Column_1895 Column_1896 Column_1897 Column_1898 Column_1899 Column_1900 Column_1901 Column_1902 Column_1903 Column_1904 Column_1905 Column_1906 Column_1907 Column_1908 Column_1909 Column_1910 Column_1911 Column_1912 Column_1913 Column_1914 Column_1915 Column_1916 Column_1917 Column_1918 Column_1919 Column_1920 Column_1921 Column_1922 Column_1923 Column_1924 Column_1925 Column_1926 Column_1927 Column_1928 Column_1929 Column_1930 Column_1931 Column_1932 Column_1933 Column_1934 Column_1935 Column_1936 Column_1937 Column_1938 Column_1939 Column_1940 Column_1941 Column_1942 Column_1943 Column_1944 Column_1945 Column_1946 Column_1947 Column_1948 Column_1949 Column_1950 Column_1951 Column_1952 Column_1953 Column_1954 Column_1955 Column_1956 Column_1957 Column_1958 Column_1959 Column_1960 Column_1961 Column_1962 Column_1963 Column_1964 Column_1965 Column_1966 Column_1967 Column_1968 Column_1969 Column_1970 Column_1971 Column_1972 Column_1973 Column_1974 Column_1975 Column_1976 Column_1977 Column_1978 Column_1979 Column_1980 Column_1981 Column_1982 Column_1983 Column_1984 Column_1985 Column_1986 Column_1987 Column_1988 Column_1989 Column_1990 Column_1991 Column_1992 Column_1993 Column_1994 Column_1995 Column_1996 Column_1997 Column_1998 Column_1999 Column_2000 Column_2001 Column_2002 Column_2003 Column_2004 Column_2005 Column_2006 Column_2007 Column_2008 Column_2009 Column_2010 Column_2011 Column_2012 Column_2013 Column_2014 Column_2015 Column_2016 Column_2017 Column_2018 Column_2019 Column_2020 Column_2021 Column_2022 Column_2023 Column_2024 Column_2025 Column_2026 Column_2027 Column_2028 Column_2029 Column_2030 Column_2031 Column_2032 Column_2033 Column_2034 Column_2035 Column_2036 Column_2037 Column_2038 Column_2039 Column_2040 Column_2041 Column_2042 Column_2043 Column_2044 Column_2045 Column_2046 Column_2047 Column_2048 Column_2049 Column_2050 Column_2051 Column_2052 Column_2053 Column_2054 Column_2055 Column_2056 Column_2057 Column_2058 Column_2059 Column_2060 Column_2061 Column_2062 Column_2063 Column_2064 Column_2065 Column_2066 Column_2067 Column_2068 Column_2069 Column_2070 Column_2071 Column_2072 Column_2073 Column_2074 Column_2075 Column_2076 Column_2077 Column_2078 Column_2079 Column_2080 Column_2081 Column_2082 Column_2083 Column_2084 Column_2085 Column_2086 Column_2087 Column_2088 Column_2089 Column_2090 Column_2091 Column_2092 Column_2093 Column_2094 Column_2095 Column_2096 Column_2097 Column_2098 Column_2099 Column_2100 Column_2101 Column_2102 Column_2103 Column_2104 Column_2105 Column_2106 Column_2107 Column_2108 Column_2109 Column_2110 Column_2111 Column_2112 Column_2113 Column_2114 Column_2115 Column_2116 Column_2117 Column_2118 Column_2119 Column_2120 Column_2121 Column_2122 Column_2123 Column_2124 Column_2125 Column_2126 Column_2127 Column_2128 Column_2129 Column_2130 Column_2131 Column_2132 Column_2133 Column_2134 Column_2135 Column_2136 Column_2137 Column_2138 Column_2139 Column_2140 Column_2141 Column_2142 Column_2143 Column_2144 Column_2145 Column_2146 Column_2147 Column_2148 Column_2149 Column_2150 Column_2151 Column_2152 Column_2153 Column_2154 Column_2155 Column_2156 Column_2157 Column_2158 Column_2159 Column_2160 Column_2161 Column_2162 Column_2163 Column_2164 Column_2165 Column_2166 Column_2167 Column_2168 Column_2169 Column_2170 Column_2171 Column_2172 Column_2173 Column_2174 Column_2175 Column_2176 Column_2177 Column_2178 Column_2179 Column_2180 Column_2181 Column_2182 Column_2183 Column_2184 Column_2185 Column_2186 Column_2187 Column_2188 Column_2189 Column_2190 Column_2191 Column_2192 Column_2193 Column_2194 Column_2195 Column_2196 Column_2197 Column_2198 Column_2199 Column_2200 Column_2201 Column_2202 Column_2203 Column_2204 Column_2205 Column_2206 Column_2207 Column_2208 Column_2209 Column_2210 Column_2211 Column_2212 Column_2213 Column_2214 Column_2215 Column_2216 Column_2217 Column_2218 Column_2219 Column_2220 Column_2221 Column_2222 Column_2223 Column_2224 Column_2225 Column_2226 Column_2227 Column_2228 Column_2229 Column_2230 Column_2231 Column_2232 Column_2233 Column_2234 Column_2235 Column_2236 Column_2237 Column_2238 Column_2239 Column_2240 Column_2241 Column_2242 Column_2243 Column_2244 Column_2245 Column_2246 Column_2247 Column_2248 Column_2249 Column_2250 Column_2251 Column_2252 Column_2253 Column_2254 Column_2255 Column_2256 Column_2257 Column_2258 Column_2259 Column_2260 Column_2261 Column_2262 Column_2263 Column_2264 Column_2265 Column_2266 Column_2267 Column_2268 Column_2269 Column_2270 Column_2271 Column_2272 Column_2273 Column_2274 Column_2275 Column_2276 Column_2277 Column_2278 Column_2279 Column_2280 Column_2281 Column_2282 Column_2283 Column_2284 Column_2285 Column_2286 Column_2287 Column_2288 Column_2289 Column_2290 Column_2291 Column_2292 Column_2293 Column_2294 Column_2295 Column_2296 Column_2297 Column_2298 Column_2299 Column_2300 Column_2301 Column_2302 Column_2303 Column_2304 Column_2305 Column_2306
feature_infos=[-0.18267196416854858:0.030778620392084122] [-0.097937427461147308:0.21873615682125092] [-0.11476731300354004:0.05808325856924057] [-0.19660943746566772:0.022811643779277802] [-0.10517866909503937:0.2096049040555954] [-0.22285221517086029:0.08539494127035141] [-0.10211284458637238:0.076273389160633087] [-0.13071770966053009:0.15239521861076355] [-0.055969491600990295:0.22458627820014954] [-0.199538454413414:0.01353420689702034] [-0.12850949168205261:0.09237188845872879] [-0.087715230882167816:0.18930646777153015] [-0.031488228589296341:0.15833653509616852] [-0.16866143047809601:0.15222795307636261] [-0.071223780512809753:0.16521228849887848] [-0.1658606231212616:0.13944999873638153] [-0.1887529194355011:0.072428479790687561] [-0.13862496614456177:0.13817834854125977] [-0.12793067097663879:0.099373012781143188] [-0.22647839784622192:0.12359557300806046] [-0.19872815907001495:-0.022943545132875443] [-0.095421150326728821:0.13998842239379883] [-0.14848227798938751:0.1288490891456604] [-0.0092157674953341484:0.23836986720561981] [-0.1542835533618927:0.14082974195480347] [-0.075961746275424957:0.1404634416103363] [-0.0086136693134903908:0.21480968594551086] [-0.022942423820495605:0.20959202945232391] [-0.19921340048313141:0.087872117757797241] [-0.18664583563804626:0.1319948136806488] [-0.1557871550321579:0.073949217796325684] [-0.15719665586948395:0.074702180922031403] [-0.029223222285509109:0.15409836173057556] [-0.11080702394247055:0.097075916826725006] [-0.094746746122837067:0.15343841910362244] [-0.058574948459863663:0.16946685314178467] [-0.069973327219486237:0.21249963343143463] [-0.15582382678985596:0.056340437382459641] [-0.20754632353782654:0.12393174320459366] [-0.065313510596752167:0.12943205237388611] [-0.12542831897735596:0.1167571023106575] [-0.10233382135629654:0.32631638646125793] [-0.11320341378450394:0.14039574563503265] [-0.15873883664608002:0.093688070774078369] [-0.017454931512475014:0.15358090400695801] [-0.082299813628196716:0.13222697377204895] [-0.11985523253679276:0.11732233315706253] [-0.13022768497467041:0.21063812077045441] [-0.15298281610012054:0.068359367549419403] [-0.099219314754009247:0.098004333674907684] [-0.096837602555751801:0.093840837478637695] [-0.10254859179258347:0.20354087650775909] [-0.1571887731552124:0.063749924302101135] [-0.073427930474281311:0.14591124653816223] [-0.25300654768943787:0.0043101771734654903] [-0.12491676211357117:0.15031406283378601] [-0.062446925789117813:0.11824620515108109] [-0.079356394708156586:0.27198982238769531] [-0.04468918964266777:0.18810127675533295] [-0.19293029606342316:0.04388582706451416] [-0.14716833829879761:0.099680162966251373] [-0.32893180847167969:0.063438184559345245] [-0.21641215682029724:0.033318653702735901] [-0.17801621556282043:0.10509710758924484] [-0.063213787972927094:0.16219882667064667] [-0.14778941869735718:0.096443504095077515] [-0.12072558701038361:0.071074463427066803] [-0.2206973135471344:0.11205120384693146] [-0.061565425246953964:0.13030712306499481] [-0.06872548907995224:0.1381184309720993] [-0.01570964977145195:0.18204221129417419] [-0.19632689654827118:0.060790270566940308] [-0.056480724364519119:0.15803568065166473] [-0.16808025538921356:0.10723299533128738] [-0.14343701303005219:0.06005367636680603] [-0.1320311576128006:0.12913943827152252] [-0.11351973563432693:0.15852151811122894] [0.11008520424365997:0.66923832893371582] [-0.20371918380260468:0.078275009989738464] [-0.073365047574043274:0.18284673988819122] [-0.03198729082942009:0.21819226443767548] [-0.15227161347866058:0.068062864243984222] [0.033892549574375153:0.67535293102264404] [-0.068233169615268707:0.17068827152252197] [-0.10655175894498825:0.11577217280864716] [-0.1993556022644043:0.11078842729330063] [-0.0083035463467240334:0.23678652942180634] [-0.088802941143512726:0.14645247161388397] [-0.058776907622814178:0.1718410849571228] [-0.068045184016227722:0.12532860040664673] [-0.111534483730793:0.14677463471889496] [-0.020934766158461571:0.18513780832290649] [-0.13670244812965393:0.077478937804698944] [-0.095263734459877014:0.16374646127223969] [-0.041343379765748978:0.13757623732089996] [-0.079498901963233948:0.13608039915561676] [-0.12368374317884445:0.091648921370506287] [-0.2911677360534668:0.25435492396354675] [-0.13353782892227173:0.12216340750455856] [-0.16947838664054871:0.059694338589906693] [-0.14869596064090729:0.086084209382534027] [-0.23400846123695374:0.0050995401106774807] [-0.074677787721157074:0.21126727759838104] [-0.07676379382610321:0.20777314901351929] [-0.11572869122028351:0.052851144224405289] [-0.10303782671689987:0.11002393066883087] [-0.064702965319156647:0.20620109140872955] [-0.1369854062795639:0.10648129880428314] [-0.16068552434444427:0.14729464054107666] [-0.16742144525051117:0.07711966335773468] [-0.088480241596698761:0.13964417576789856] [-0.14534711837768555:0.17906148731708527] [-0.080465592443943024:0.14087748527526855] [-0.083332188427448273:0.11333607882261276] [-0.060936346650123596:0.118795245885849] [-0.15773051977157593:0.10555488616228104] [-0.1179056316614151:0.10914801061153412] [-0.07938113808631897:0.14033287763595581] [-0.059907432645559311:0.11097528040409088] [-0.078345149755477905:0.23747113347053528] [-0.11053457111120224:0.12486625462770462] [-0.019095154479146004:0.20167839527130127] [-0.021219450980424881:0.26323980093002319] [-0.21009916067123413:0.087672717869281769] [-0.16448107361793518:0.09186767041683197] [-0.18994089961051941:0.095153622329235077] [-0.18468524515628815:0.12827612459659576] [-0.12462382763624191:0.12940788269042969] [-0.12708348035812378:0.1695844829082489] [-0.11041811108589172:0.12518228590488434] [-0.11262181401252747:0.063900433480739594] [-0.36383798718452454:0.049409523606300354] [-0.11003967374563217:0.16474772989749908] [-0.047251421958208084:0.20356430113315582] [-0.073012411594390869:0.14363859593868256] [-0.083393029868602753:0.13698144257068634] [-0.074377655982971191:0.19169062376022339] [-0.14405049383640289:0.063901320099830627] [-0.067676730453968048:0.16973574459552765] [-0.1467425674200058:0.096657164394855499] [-0.13885489106178284:0.064939878880977631] [-0.072765007615089417:0.17413876950740814] [-0.057708967477083206:0.23951777815818787] [-0.087450712919235229:0.17725178599357605] [-0.040066350251436234:0.23749750852584839] [-0.07454729825258255:0.14852148294448853] [-0.096133291721343994:0.094260133802890778] [-0.15533755719661713:0.079292088747024536] [-0.1323322057723999:0.11728186160326004] [-0.1544489860534668:0.11043872684240341] [-0.030551599338650703:0.15822158753871918] [-0.16510897874832153:0.050931666046380997] [-0.1388586014509201:0.04616304486989975] [-0.10965582728385925:0.095025010406970978] [-0.17697063088417053:0.10913372039794922] [0.192038893699646:0.64782071113586426] [-0.043977219611406326:0.23360097408294678] [-0.10587776452302933:0.22452476620674133] [-0.15055824816226959:0.095909543335437775] [-0.096024118363857269:0.14094148576259613] [0.037786427885293961:0.23816701769828796] [-0.11548549681901932:0.15118040144443512] [-0.037791445851325989:0.13677571713924408] [-0.12971691787242889:0.11391087621450424] [-0.12146598100662231:0.075152762234210968] [-0.095141448080539703:0.081296853721141815] [-0.14194327592849731:0.0608653724193573] [-0.09991706907749176:0.18682801723480225] [-0.094334721565246582:0.14321684837341309] [-0.11376737803220749:0.10219737142324448] [-0.03517521545290947:0.13110432028770447] [-0.086579576134681702:0.11237043142318726] [-0.086537249386310577:0.12174823135137558] [-0.13217993080615997:0.055008649826049805] [-0.21144403517246246:0.067766740918159485] [-0.20097501575946808:0.064512811601161957] [-0.18416333198547363:0.1872888058423996] [-0.12420853972434998:0.11135973781347275] [-0.19791977107524872:0.0016456714365631342] [-0.11693102866411209:0.075279578566551208] [-0.051821287721395493:0.13506346940994263] [-0.0070123793557286263:0.15270689129829407] [-0.16355480253696442:0.038419879972934723] [-0.096542127430438995:0.12906146049499512] [-0.12130259722471237:0.10495658218860626] [-0.1159767210483551:0.12719200551509857] [-0.1347375214099884:0.1083354577422142] [-0.22214332222938538:0.13933674991130829] [-0.11118049919605255:0.089410588145256042] [-0.14199738204479218:0.13837826251983643] [-0.10302562266588211:0.20708480477333069] [-0.11814339458942413:0.1064184233546257] [-0.11995510756969452:0.078421793878078461] [-0.16137687861919403:0.087362155318260193] [-0.14208090305328369:0.055356509983539581] [-0.050328794866800308:0.19298727810382843] [-0.11660459637641907:0.053333733230829239] [-0.10026581585407257:0.074243195354938507] [-0.047507017850875854:0.18808872997760773] [-0.16723458468914032:0.03514697402715683] [-0.053195662796497345:0.19849623739719391] [-0.23428718745708466:0.065528653562068939] [-0.068865835666656494:0.25556489825248718] [-0.26920801401138306:-0.0047693494707345963] [-0.077623680233955383:0.23792289197444916] [-0.12316592782735825:0.072940967977046967] [-0.13473224639892578:0.1587664783000946] [-0.031839530915021896:0.16591498255729675] [-0.10282111167907715:0.099826402962207794] [-0.16330599784851074:0.052910521626472473] [-0.11131352186203003:0.073479063808917999] [-0.088327251374721527:0.18586921691894531] [-0.1271069198846817:0.069468118250370026] [-0.065960876643657684:0.23337303102016449] [-0.15397100150585175:0.14919623732566833] [-0.13592381775379181:0.077374018728733063] [-0.091523937880992889:0.17625878751277924] [-0.18629918992519379:0.47733169794082642] [-0.12431947886943817:0.10256301611661911] [-0.17538529634475708:0.18502825498580933] [-0.08152751624584198:0.15980802476406097] [-0.064712688326835632:0.11831135302782059] [-0.12231852114200592:0.10234915465116501] [-0.071775980293750763:0.18177632987499237] [-0.11747308075428009:0.1039031445980072] [-0.092551447451114655:0.13375465571880341] [-0.10790205001831055:0.12176359444856644] [-0.09985148161649704:0.0750298872590065] [-0.079976655542850494:0.11391951143741608] [-0.12488897144794464:0.14025124907493591] [-0.10728098452091217:0.060904096812009811] [-0.071175135672092438:0.15245144069194794] [-0.075929597020149231:0.21263353526592255] [-0.06957823783159256:0.12246175855398178] [-0.062820509076118469:0.14679788053035736] [-0.25950190424919128:0.015475578606128693] [-0.13314636051654816:0.094126589596271515] [-0.12753964960575104:0.064634598791599274] [-0.15410619974136353:0.046993888914585114] [-0.1269056648015976:0.12147476524114609] [-0.26544573903083801:0.10071749985218048] [-0.037104904651641846:0.16471321880817413] [-0.04912818968296051:0.15888670086860657] [-0.10865041613578796:0.15713962912559509] [-0.16648988425731659:0.10006570070981979] [-0.070098839700222015:0.14365437626838684] [-0.078367866575717926:0.13025118410587311] [-0.063438698649406433:0.25297874212265015] [-0.13964203000068665:0.13073860108852386] [-0.091875836253166199:0.14187200367450714] [-0.093275032937526703:0.08508562296628952] [-0.1760314404964447:0.1172424703836441] [-0.10469775646924973:0.11271924525499344] [-0.089342646300792694:0.095925070345401764] [-0.072560764849185944:0.16732786595821381] [-0.11290736496448517:0.11274923384189606] [-0.17252737283706665:0.055388499051332474] [-0.095971353352069855:0.08946642279624939] [-0.15709279477596283:0.18381999433040619] [-0.21255716681480408:0.15196463465690613] [-0.13600499927997589:0.083116985857486725] [-0.16015700995922089:0.062518782913684845] [-0.087833128869533539:0.12152613699436188] [-0.089215561747550964:0.1179293617606163] [-0.19407713413238525:0.043170545250177383] [-0.23438051342964172:0.038067556917667389] [-0.15524721145629883:0.082277640700340271] [-0.10725876688957214:0.10505907237529755] [-0.1003253161907196:0.16491116583347321] [-0.22473837435245514:0.072727777063846588] [-0.099178843200206757:0.10058750957250595] [-0.17072245478630066:0.059790037572383881] [-0.12486253678798676:0.061657603830099106] [-0.13384196162223816:0.11662155389785767] [-0.041781090199947357:0.12366248667240143] [-0.11403116583824158:0.13504728674888611] [-0.17855438590049744:0.11088854074478149] [-0.16175223886966705:0.1205553263425827] [-0.22392338514328003:0.064131483435630798] [-0.10358767956495285:0.10307431221008301] [-0.060910902917385101:0.16283617913722992] [-0.16510610282421112:0.090317532420158386] [-0.23420581221580505:0.097106330096721649] [-0.12103653699159622:0.1042557880282402] [-0.11232540011405945:0.10221818834543228] [-0.160599485039711:0.1339372992515564] [-0.26032626628875732:0.092967897653579712] [-0.13579396903514862:0.12805517017841339] [-0.083017408847808838:0.14649055898189545] [-0.011764678172767162:0.1580890417098999] [-0.040192175656557083:0.19327811896800995] [-0.13919369876384735:0.10309639573097229] [-0.15532147884368896:0.087316244840621948] [-0.084558963775634766:0.17407304048538208] [-0.16833427548408508:0.063787944614887238] [-0.10424861311912537:0.15289728343486786] [-0.030880438163876534:0.17274180054664612] [-0.12764641642570496:0.10962498933076859] [-0.065494820475578308:0.16001921892166138] [-0.10370532423257828:0.13728433847427368] [-0.16886270046234131:0.094009913504123688] [-0.24073384702205658:0.034012451767921448] [-0.27615272998809814:0.04112764447927475] [-0.095931954681873322:0.071785286068916321] [-0.1023496687412262:0.11622539907693863] [-0.21538698673248291:0.017564857378602028] [-0.11883510649204254:0.12341372668743134] [-0.1087239682674408:0.083761073648929596] [-0.080342277884483337:0.13852061331272125] [-0.1035616472363472:0.16622467339038849] [-0.16288480162620544:0.046698421239852905] [-0.14267174899578094:0.12124919891357422] [-0.21802559494972229:-0.014465788379311562] [0.0013418307062238455:0.22056812047958374] [-0.075374163687229156:0.10184963792562485] [-0.12188048660755157:0.13645422458648682] [-0.060815494507551193:0.20794105529785156] [-0.19992214441299438:0.080466046929359436] [-0.048038102686405182:0.18299300968647003] [-0.11376000940799713:0.12795372307300568] [-0.13327331840991974:0.10643966495990753] [-0.055723831057548523:0.12104849517345428] [-0.010818695649504662:0.22059996426105499] [-0.10334599763154984:0.081367731094360352] [-0.11915907263755798:0.092263825237751007] [-0.055967088788747787:0.17705659568309784] [-0.084096416831016541:0.1921057403087616] [-0.16728666424751282:0.080804534256458282] [-0.072405606508255005:0.14624707400798798] [0.21859937906265259:0.54071861505508423] [-0.55520939826965332:-0.0067649125121533871] [-0.08128531277179718:0.24738022685050964] [-0.071178823709487915:0.1904900074005127] [-0.13349245488643646:0.13938716053962708] [-0.0016246519517153502:0.23686926066875458] [-0.10401374101638794:0.11581240594387054] [-0.056582536548376083:0.10824713110923767] [-0.035722732543945312:0.14152714610099792] [0.017745207995176315:0.24610370397567749] [-0.026993254199624062:0.25685513019561768] [-0.12889270484447479:0.078522093594074249] [-0.083579882979393005:0.14125654101371765] [-0.20540902018547058:0.098815694451332092] [-0.045884881168603897:0.15150938928127289] [-0.072624333202838898:0.13510558009147644] [-0.15274173021316528:0.11005077511072159] [-0.10718075931072235:0.12496599555015564] [-0.14345721900463104:0.081955797970294952] [-0.070648282766342163:0.1587110310792923] [-0.078667983412742615:0.15439675748348236] [-0.12386806309223175:0.12460800260305405] [-0.090155012905597687:0.12888900935649872] [-0.14417389035224915:0.11988495290279388] [-0.16462647914886475:0.10491753369569778] [-0.089060351252555847:0.086568303406238556] [-0.054968949407339096:0.17647132277488708] [-0.065314501523971558:0.13977973163127899] [-0.12540391087532043:0.075232818722724915] [-0.089893907308578491:0.095800720155239105] [-0.15290373563766479:0.21753795444965363] [-0.09869181364774704:0.16591131687164307] [-0.12921880185604095:0.11868133395910263] [-0.059830591082572937:0.12529966235160828] [-0.20869189500808716:0.10423909872770309] [-0.07539098709821701:0.20085416734218597] [-0.23768670856952667:0.083232216536998749] [-0.24259613454341888:0.086208045482635498] [-0.065239273011684418:0.22551636397838593] [-0.12894554436206818:0.073921099305152893] [-0.062204901129007339:0.1319473534822464] [-0.032880362123250961:0.16564062237739563] [-0.17204153537750244:0.085873886942863464] [-0.083380222320556641:0.10821418464183807] [-0.089213401079177856:0.18762074410915375] [-0.10615222156047821:0.097887203097343445] [-0.10111817717552185:0.12037426233291626] [-0.095537923276424408:0.15319934487342834] [-0.095771946012973785:0.098042480647563934] [-0.11015541851520538:0.20416176319122314] [0.025848841294646263:0.24955281615257263] [-0.078488573431968689:0.16479402780532837] [-0.076998017728328705:0.1264270544052124] [-0.16785269975662231:0.025204610079526901] [-0.074318632483482361:0.13214908540248871] [-0.033003993332386017:0.20417125523090363] [-0.21073088049888611:0.084939748048782349] [-0.085203066468238831:0.13071644306182861] [-0.14377515017986298:0.089687556028366089] [-0.063940376043319702:0.19985119998455048] [-0.061149496585130692:0.13090012967586517] [-0.12527675926685333:0.088543519377708435] [-0.24268187582492828:0.020479029044508934] [-0.12833280861377716:0.12144991755485535] [-0.18480688333511353:0.037111908197402954] [0.028701642528176308:0.24789111316204071] [-0.10084378719329834:0.15496173501014709] [-0.12823542952537537:0.10710696876049042] [-0.30992743372917175:0.062483888119459152] [-0.19982291758060455:0.15002880990505219] [-0.14001782238483429:0.051088526844978333] [-0.081788279116153717:0.11855188012123108] [-0.096828557550907135:0.16926248371601105] [-0.15024501085281372:0.049944028258323669] [-0.10768158733844757:0.19029566645622253] [-0.11013765633106232:0.10833269357681274] [-0.080968566238880157:0.14032712578773499] [-0.095140762627124786:0.18931680917739868] [-0.18618795275688171:0.036577183753252029] [-0.11068441718816757:0.10246915370225906] [-0.19924430549144745:0.062199346721172333] [-0.11653140932321548:0.088941290974617004] [-0.082623742520809174:0.19754712283611298] [-0.022298252210021019:0.14112268388271332] [-0.1552712619304657:0.087754450738430023] [-0.1137828528881073:0.13975207507610321] [-0.13262608647346497:0.03988960012793541] [-0.074335694313049316:0.14850415289402008] [-0.15224818885326385:0.11781937628984451] [-0.16457146406173706:0.10989880561828613] [-0.131813645362854:0.13418425619602203] [-0.2249092161655426:0.031239863485097885] [-0.018594721332192421:0.14765135943889618] [-0.099815957248210907:0.094839520752429962] [-0.099328763782978058:0.17920507490634918] [-0.27339544892311096:0.086643718183040619] [-0.18325559794902802:0.092665500938892365] [-0.091716744005680084:0.15840044617652893] [-0.19466295838356018:0.00052727351430803537] [-0.31811538338661194:0.085276335477828979] [-0.10744253545999527:0.097290255129337311] [-0.14952586591243744:0.087750434875488281] [0.0030553808901458979:0.25503376126289368] [-0.21195156872272491:0.062482364475727081] [-0.13922834396362305:0.048470821231603622] [-0.15216243267059326:0.083333387970924377] [-0.14402362704277039:0.17994865775108337] [-0.093165934085845947:0.057083547115325928] [-0.075073279440402985:0.093478307127952576] [-0.16366206109523773:0.061438057571649551] [-0.19612112641334534:0.040290772914886475] [-0.16854090988636017:0.064594648778438568] [-0.11492310464382172:0.18743129074573517] [-0.023837776854634285:0.17629058659076691] [-0.10252794623374939:0.13419878482818604] [-0.16571681201457977:0.097785532474517822] [-0.13887590169906616:0.11518502235412598] [-0.10026736557483673:0.17415785789489746] [-0.12764966487884521:0.12444882839918137] [-0.20300549268722534:0.06755509227514267] [-0.084134265780448914:0.14311721920967102] [-0.18081006407737732:0.093935534358024597] [-0.079374387860298157:0.16081562638282776] [-0.21914398670196533:0.046080779284238815] [-1.5045449733734131:-0.18931707739830017] [-0.018373550847172737:0.20774248242378235] [-0.101848304271698:0.16296444833278656] [-0.068712584674358368:0.10390582680702209] [-0.054485291242599487:0.12061185389757156] [-0.2383258193731308:0.0051774866878986359] [-0.085119150578975677:0.11749730259180069] [-0.046995874494314194:0.15260295569896698] [-0.11526798456907272:0.11851972341537476] [-0.088190272450447083:0.14710472524166107] [-0.11442857980728149:0.056084629148244858] [-0.05383571982383728:0.12110690027475357] [-0.14284418523311615:0.093811586499214172] [-0.18443953990936279:0.05562032014131546] [-0.093514427542686462:0.14232529699802399] [-0.16539141535758972:0.08129100501537323] [-0.1396704763174057:0.059929255396127701] [-0.054763864725828171:0.15887659788131714] [-0.15081298351287842:0.080504648387432098] [-0.12093888968229294:0.084293648600578308] [-0.23426635563373566:0.043084833770990372] [-0.080290414392948151:0.10755166411399841] [-0.11443183571100235:0.10093381255865097] [-0.14795328676700592:0.11785036325454712] [-0.10353472083806992:0.16083107888698578] [-0.13922832906246185:0.10465841740369797] [-0.17888696491718292:0.026849547401070595] [-0.16965171694755554:0.043971247971057892] [-0.081546522676944733:0.1289265900850296] [-0.041549496352672577:0.14279147982597351] [-0.13523726165294647:0.10099389404058456] [-0.14749036729335785:0.02647300623357296] [-0.12071935087442398:0.10131292790174484] [-0.11517993360757828:0.10882389545440674] [-0.065962724387645721:0.11127662658691406] [-0.087385013699531555:0.19774892926216125] [-0.1302378922700882:0.11174831539392471] [-0.12659671902656555:0.11153734475374222] [-0.22308817505836487:0.072634875774383545] [-0.1098259761929512:0.17793470621109009] [-0.083723753690719604:0.13202710449695587] [0.20147182047367096:0.23103520274162292] [-0.15512931346893311:0.085877701640129089] [-0.11215095221996307:0.38138097524642944] [-0.19470460712909698:0.076630130410194397] [-0.10337772965431213:0.2380281388759613] [-0.11614980548620224:0.098982580006122589] [-0.084572955965995789:0.085059009492397308] [-0.12859150767326355:0.054407455027103424] [-0.12414659559726715:0.11889765411615372] [-0.12862294912338257:0.12637077271938324] [-0.11405862867832184:0.13232123851776123] [-0.11419008672237396:0.14950281381607056] [-0.1734437495470047:0.028915582224726677] [-0.091008476912975311:0.055884689092636108] [-0.094092957675457001:0.13239993155002594] [-0.067031353712081909:0.18529695272445679] [-0.1132315918803215:0.088445670902729034] [-0.1637624204158783:0.19882804155349731] [0.0057092630304396152:0.28362661600112915] [-0.10374434292316437:0.089628659188747406] [-0.021851282566785812:0.12938384711742401] [-0.079775646328926086:0.12959164381027222] [-0.09807731956243515:0.13982892036437988] [-0.12674760818481445:0.090691104531288147] [-0.19060274958610535:0.099242806434631348] [-0.1016053780913353:0.18882881104946136] [-0.1890220046043396:0.079943984746932983] [-0.15186502039432526:0.07648380845785141] [-0.10576895624399185:0.082220397889614105] [-0.12275735288858414:0.084626339375972748] [-0.14177201688289642:0.021836478263139725] [-0.11997472494840622:0.061354059725999832] [-0.11099954694509506:0.11690434813499451] [-0.10923586785793304:0.089723370969295502] [-0.030835587531328201:0.25323128700256348] [-0.13027025759220123:0.095157571136951447] [-0.067469358444213867:0.15976536273956299] [-0.17965543270111084:0.086084946990013123] [0.0088387792930006981:0.21439218521118164] [-0.10251026600599289:0.12495776265859604] [-0.076431423425674438:0.172730952501297] [-0.038274303078651428:0.13875807821750641] [-0.043119423091411591:0.20117773115634918] [-0.071205370128154755:0.13238383829593658] [-0.21983560919761658:0.095136202871799469] [-0.15541602671146393:0.13860343396663666] [-0.17877107858657837:0.090135402977466583] [-0.12721946835517883:0.14089286327362061] [-0.025903608649969101:0.21007904410362244] [-0.10162964463233948:0.088999554514884949] [-0.054922770708799362:0.25899940729141235] [-0.060518186539411545:0.15716899931430817] [-0.11081025004386902:0.13580480217933655] [-0.16182158887386322:0.062216036021709442] [-0.043467674404382706:0.12487686425447464] [-0.076108060777187347:0.21301151812076569] [-0.11112232506275177:0.15727530419826508] [-0.81943774223327637:-0.28597089648246765] [-0.14699114859104156:0.042577281594276428] [-0.0073204054497182369:0.20045492053031921] [-0.18439696729183197:0.085223078727722168] [-0.095548838376998901:0.077170051634311676] [-0.099828578531742096:0.1265900731086731] [-0.12424851208925247:0.12311474233865738] [-0.1016131192445755:0.085329994559288025] [-0.088255845010280609:0.17284607887268066] [-0.22197435796260834:0.053543511778116226] [-0.14571838080883026:0.28583806753158569] [-0.050584346055984497:0.14229242503643036] [-0.028007060289382935:0.19809390604496002] [-0.16906741261482239:0.12048269063234329] [-0.11304636299610138:0.095944799482822418] [-0.047714017331600189:0.12464690953493118] [-0.11133615672588348:0.068197265267372131] [-0.1602497398853302:0.093274302780628204] [-0.07096698135137558:0.16783319413661957] [-0.64852631092071533:-0.070940189063549042] [-0.081712864339351654:0.098811224102973938] [-0.18542520701885223:0.065456919372081757] [-0.051654927432537079:0.2391117662191391] [-0.1311517208814621:0.12711940705776215] [-0.073389217257499695:0.11709547787904739] [-0.068856514990329742:0.16793492436408997] [-0.15585872530937195:0.2224053293466568] [-0.13585372269153595:0.14433147013187408] [-0.06992696225643158:0.18330444395542145] [-0.10414405167102814:0.18978637456893921] [-0.059893064200878143:0.16936491429805756] [-0.065751738846302032:0.1182049885392189] [-0.12594954669475555:0.11283539235591888] [-0.028366854414343834:0.14123314619064331] [-0.10384500026702881:0.20541055500507355] [-0.064560450613498688:0.31195271015167236] [-0.099903181195259094:0.13032354414463043] [10.102624893188477:12.205938339233398] [-0.13638368248939514:0.08806377649307251] [-0.06936229020357132:0.12239842861890793] [-0.13692602515220642:0.069630399346351624] [-0.16809108853340149:0.12951308488845825] [-0.20802445709705353:0.067673653364181519] [-0.071876361966133118:0.14324535429477692] [-0.23276029527187347:0.076792404055595398] [-0.153848797082901:0.14311906695365906] [0.0060262884944677353:0.31908062100410461] [-0.088542476296424866:0.078618563711643219] [-0.13707958161830902:0.10327906906604767] [-0.17456395924091339:0.045745387673377991] [-0.16742004454135895:0.09032294899225235] [-0.066819310188293457:0.10805198550224304] [-0.12227699905633926:0.11464008688926697] [-0.20026475191116333:0.098885327577590942] [-0.1576017439365387:0.11235842108726501] [-0.07368779182434082:0.17560595273971558] [-0.12455730140209198:0.040626108646392822] [-0.16804924607276917:0.22417424619197845] [-0.083608761429786682:0.16859270632266998] [-0.045889206230640411:0.14215178787708282] [-0.13820257782936096:0.26844081282615662] [-0.19123376905918121:0.0068849204108119011] [-0.11310297250747681:0.13885615766048431] [-0.09327012300491333:0.14471696317195892] [-0.14623206853866577:0.1204422190785408] [-0.090458780527114868:0.12283283472061157] [-0.096568726003170013:0.16842378675937653] [-0.079475939273834229:0.152011439204216] [-0.08284275233745575:0.18585388362407684] [-0.04626944288611412:0.19712510704994202] [-0.1112649217247963:0.17235767841339111] [-0.036481156945228577:0.20561219751834869] [-0.13059651851654053:0.14598239958286285] [-0.24506118893623352:0.1313135027885437] [-0.038529213517904282:0.18233463168144226] [-0.097305931150913239:0.16848903894424438] [-0.095578089356422424:0.18361370265483856] [-0.088399700820446014:0.15062195062637329] [-0.074568033218383789:0.10670851916074753] [-0.06308707594871521:0.1482345312833786] [-0.15022319555282593:0.12657743692398071] [-0.01450005266815424:0.15559378266334534] [-0.072600580751895905:0.11263618618249893] [-0.14475645124912262:0.12739336490631104] [0.017837090417742729:0.22420522570610046] [-0.099722094833850861:0.1280444860458374] [-0.021195419132709503:0.22915975749492645] [-0.030134322121739388:0.16214354336261749] [-0.12712046504020691:0.058858975768089294] [-0.038640696555376053:0.20623378455638885] [-0.12709364295005798:0.16573338210582733] [-0.093450114130973816:0.068082854151725769] [-0.119032122194767:0.13495621085166931] [-0.11075328290462494:0.1257026195526123] [-0.18254281580448151:0.13619521260261536] [-0.053153697401285172:0.19094352424144745] [-0.15050706267356873:0.16955235600471497] [-0.12516042590141296:0.076695568859577179] [0.0049319732934236526:0.22128243744373322] [-0.10948231071233749:0.073186822235584259] [-0.068982236087322235:0.20987807214260101] [-0.17669409513473511:0.15117420256137848] [-0.03124554269015789:0.19898927211761475] [-0.013991263695061207:0.21579261124134064] [-0.041409272700548172:0.1914559006690979] [-0.27194890379905701:0.053181800991296768] [-0.10817915201187134:0.16258940100669861] [-0.11640509217977524:0.10420835018157959] [-0.25254908204078674:0.015417499467730522] [-0.17022207379341125:0.047409780323505402] [-0.13276691734790802:0.13190121948719025] [-0.14337554574012756:0.15983033180236816] [-0.14935643970966339:0.096732102334499359] [-0.13222040235996246:0.16347254812717438] [-0.11121468245983124:0.096881717443466187] [-0.090752191841602325:0.10537289083003998] [-0.24793693423271179:0.10202565044164658] [-0.065162964165210724:0.13800568878650665] [-0.10193135589361191:0.11586994677782059] [-0.14200489223003387:0.12729479372501373] [-0.14401987195014954:0.078390523791313171] [-0.11284124106168747:0.16960170865058899] [-0.061226062476634979:0.12930700182914734] [-0.12859903275966644:0.18871696293354034] [-0.067837521433830261:0.20814301073551178] [-0.13892203569412231:0.11095143109560013] [-0.17985942959785461:0.079973861575126648] [-0.20785993337631226:0.087145105004310608] [-0.10828150063753128:0.12897174060344696] [-0.09063372015953064:0.15285371243953705] [-0.15851935744285583:0.04190010204911232] [-0.089369945228099823:0.12561720609664917] [-0.12096428126096725:0.12317685782909393] [-0.097523897886276245:0.13778543472290039] [-0.24427485466003418:-0.0092063797637820244] [-0.038550946861505508:0.14993686974048615] [-0.081024788320064545:0.19805586338043213] [-0.22872407734394073:0.070300400257110596] [-0.15944820642471313:0.13749955594539642] [-0.085582643747329712:0.087080799043178558] [-0.025156980380415916:0.22443413734436035] [-0.057010091841220856:0.13803601264953613] [-0.087944626808166504:0.11426617950201035] [-0.13393759727478027:0.14878650009632111] [-0.10123775154352188:0.14038054645061493] [-0.086943291127681732:0.17508678138256073] [-0.079637996852397919:0.099531650543212891] [-0.15885533392429352:0.049104779958724976] [-0.11432525515556335:0.24783457815647125] [-0.13570217788219452:0.1777961254119873] [-0.16917321085929871:0.06668468564748764] [-0.11096931248903275:0.18224576115608215] [-0.061258941888809204:0.12780040502548218] [-0.10821761190891266:0.082547351717948914] [-0.078149646520614624:0.11131750047206879] [-0.046937942504882812:0.14220541715621948] [-0.04507218673825264:0.18937148153781891] [-0.1526491641998291:0.030113369226455688] [-0.095846317708492279:0.074057362973690033] [-0.14871455729007721:0.043421328067779541] [-0.14221324026584625:0.077060200273990631] [-0.12154197692871094:0.051543679088354111] [-0.16301347315311432:0.077005565166473389] [-0.098134703934192657:0.07249276340007782] [-0.10811544954776764:0.14584797620773315] [-0.1582283228635788:0.085631556808948517] [-0.10514108836650848:0.090380027890205383] [-0.14362666010856628:0.12761053442955017] [-0.052798129618167877:0.12055281549692154] [-0.1101970374584198:0.19883741438388824] [-0.13317015767097473:0.17521454393863678] [-0.055670805275440216:0.1633894145488739] [-0.14449910819530487:0.072684511542320251] [-0.16824406385421753:0.084581591188907623] [-0.039572026580572128:0.1596008837223053] [-0.062923222780227661:0.25289562344551086] [-0.032979603856801987:0.13352248072624207] [-0.18543596565723419:0.069387368857860565] [-0.12773126363754272:0.094351775944232941] [-0.13860379159450531:0.12936218082904816] [-0.21675324440002441:0.020729074254631996] [-0.14597770571708679:0.1273207813501358] [-0.11640680581331253:0.18624570965766907] [-0.054481267929077148:0.18173648416996002] [-0.090715959668159485:0.20871952176094055] [-0.082651160657405853:0.23757672309875488] [-0.18359939754009247:0.067639775574207306] [-0.12088964879512787:0.12813673913478851] [-0.04491230845451355:0.1916830837726593] [-0.10060777515172958:0.20722688734531403] [-0.15753623843193054:0.11150813102722168] [-0.12243761122226715:0.13297624886035919] [-0.13715757429599762:0.056510306894779205] [-0.16095776855945587:0.049565095454454422] [-0.071564540266990662:0.1724638044834137] [-0.11301063001155853:0.084506481885910034] [-0.17543813586235046:0.092934809625148773] [-0.086936712265014648:0.24378898739814758] [-0.30187195539474487:0.1500934511423111] [-0.12217067927122116:0.19516736268997192] [-0.10840283334255219:0.17187507450580597] [-0.21133945882320404:0.17224259674549103] [-0.1076093390583992:0.1216878816485405] [-0.11222393810749054:0.13009102642536163] [-0.094562932848930359:0.11713428050279617] [-0.12315026670694351:0.1324182003736496] [-0.17614933848381042:0.093462951481342316] [-0.076530136168003082:0.15650628507137299] [-0.10147751122713089:0.10596805065870285] [-0.21449841558933258:0.092926293611526489] [-0.17373323440551758:0.013470224104821682] [-0.10480270534753799:0.14250044524669647] [0.033687051385641098:0.20254066586494446] [-0.082959122955799103:0.3007957935333252] [-0.24472343921661377:0.077832356095314026] [-0.12150882929563522:0.051142293959856033] [-0.17775984108448029:0.095510125160217285] [-0.19531483948230743:0.074664682149887085] [-0.096926271915435791:0.2061452716588974] [-0.13301916420459747:0.092802494764328003] [-0.54476433992385864:0.05727100744843483] [-0.084267832338809967:0.22939945757389069] [-0.24754863977432251:0.10308242589235306] [-0.10494992136955261:0.093914888799190521] [-0.27963972091674805:0.1431783139705658] [-0.060007855296134949:0.23164725303649902] [-0.2071298211812973:0.020897373557090759] [-0.14330871403217316:0.11343864351511002] [-0.25072622299194336:0.19548939168453217] [-0.078679449856281281:0.19607497751712799] [-0.16949635744094849:0.19733883440494537] [-0.1505802720785141:0.17260937392711639] [-0.20669008791446686:0.3596741259098053] [-0.23660933971405029:0.044376924633979797] [-0.087715588510036469:0.15701964497566223] [-0.32829472422599792:0.099048510193824768] [-0.3745313286781311:0.11940723657608032] [-0.23583513498306274:0.0062488163821399212] [-0.16713714599609375:0.22448046505451202] [-0.25048977136611938:0.13330493867397308] [-0.022509060800075531:0.19806349277496338] [-0.30090036988258362:0.15908318758010864] [-0.10477183759212494:0.21216298639774323] [-0.027001883834600449:0.23518775403499603] [-0.031711850315332413:0.22535014152526855] [-0.19730286300182343:0.10241983085870743] [-0.21645435690879822:0.14915922284126282] [-0.16027463972568512:0.069023251533508301] [-0.19853387773036957:0.062797307968139648] [-0.057276986539363861:0.15979163348674774] [-0.11298277974128723:0.1856575608253479] [-0.12927065789699554:0.17776545882225037] [-0.076875366270542145:0.17164072394371033] [-0.050176318734884262:0.20072534680366516] [-0.17579315602779388:0.057373974472284317] [-0.22525669634342194:0.19373893737792969] [-0.069945529103279114:0.14154931902885437] [-0.13258540630340576:0.16881817579269409] [-0.21427400410175323:0.30405208468437195] [-0.10102234035730362:0.14978677034378052] [-0.13264325261116028:0.13073600828647614] [-0.10944829136133194:0.15996545553207397] [-0.10910192877054214:0.17066632211208344] [-0.15282909572124481:0.12537965178489685] [-0.13216952979564667:0.18877534568309784] [-0.16362461447715759:0.063083529472351074] [-0.13492381572723389:0.088531985878944397] [-0.17944011092185974:0.12700486183166504] [-0.22075919806957245:0.19552868604660034] [-0.17051519453525543:0.085030414164066315] [-0.11524052917957306:0.15542291104793549] [-0.27010259032249451:-0.0060082706622779369] [-0.13885892927646637:0.15135174989700317] [-0.096528828144073486:0.12532612681388855] [-0.077781014144420624:0.44980078935623169] [-0.084763862192630768:0.20277464389801025] [-0.24130511283874512:0.023328052833676338] [-0.15191498398780823:0.14080619812011719] [-0.57393687963485718:0.05991271510720253] [-0.25808849930763245:0.059056613594293594] [-0.19717742502689362:0.10531725734472275] [-0.060936540365219116:0.16471891105175018] [-0.1776774525642395:0.048668507486581802] [-0.24318961799144745:0.077494174242019653] [-0.19121411442756653:0.24073600769042969] [-0.087610915303230286:0.17081630229949951] [-0.074872121214866638:0.14668694138526917] [-0.048469915986061096:0.18724066019058228] [-0.24673564732074738:0.07079731673002243] [-0.08923880010843277:0.18491077423095703] [-0.1849270761013031:0.12655593454837799] [-0.28680497407913208:0.067123681306838989] [-0.17251966893672943:0.15737350285053253] [-0.16619008779525757:0.18919634819030762] [0.20284633338451385:0.7206767201423645] [-0.19146795570850372:0.11372105032205582] [-0.093607313930988312:0.19113121926784515] [-0.024256246164441109:0.29738852381706238] [-0.27332064509391785:0.087046615779399872] [0.13726446032524109:1.0364762544631958] [-0.095992580056190491:0.19683131575584412] [-0.12272454053163528:0.27737942337989807] [-0.23134922981262207:0.29320850968360901] [-0.0021224459633231163:0.26851853728294373] [-0.15237614512443542:0.14973771572113037] [-0.060594052076339722:0.16229051351547241] [-0.10351882874965668:0.13284380733966827] [-0.1208258643746376:0.28785982728004456] [-0.10447199642658234:0.16277378797531128] [-0.19411686062812805:0.080531120300292969] [-0.11207660287618637:0.20294901728630066] [-0.05451342836022377:0.21001233160495758] [-0.091288886964321136:0.13287661969661713] [-0.12227406352758408:0.093507573008537292] [-0.29829400777816772:0.32241985201835632] [-0.140382319688797:0.092284955084323883] [-0.16754904389381409:0.066339462995529175] [-0.18388783931732178:0.13446766138076782] [-0.25527647137641907:0.004578473512083292] [-0.10567397624254227:0.26266491413116455] [-0.095820479094982147:0.22477547824382782] [-0.13129031658172607:0.065708734095096588] [-0.15293934941291809:0.10858288407325745] [-0.1751716136932373:0.23167333006858826] [-0.13101887702941895:0.11203090846538544] [-0.13123974204063416:0.11997763812541962] [-0.18483996391296387:0.042986862361431122] [-0.1217738538980484:0.18595467507839203] [-0.22119522094726562:0.20516826212406158] [-0.12535586953163147:0.16515980660915375] [-0.099661931395530701:0.1367020457983017] [-0.08817637711763382:0.15540198981761932] [-0.20215369760990143:0.096496909856796265] [-0.12001054733991623:0.23636637628078461] [-0.078828677535057068:0.17034649848937988] [-0.084376387298107147:0.1543172150850296] [-0.093913905322551727:0.25061190128326416] [-0.13805343210697174:0.12236050516366959] [0.010289714671671391:0.29537326097488403] [-0.063058137893676758:0.28428098559379578] [-0.22116617858409882:0.11632299423217773] [-0.26681360602378845:0.074578933417797089] [-0.20584471523761749:0.1433948278427124] [-0.19290883839130402:0.093732714653015137] [-0.15090002119541168:0.12712398171424866] [-0.11101928353309631:0.16258810460567474] [-0.092761136591434479:0.13518494367599487] [-0.12933915853500366:0.092653185129165649] [-0.3743012547492981:0.056157674640417099] [-0.1182798370718956:0.18921293318271637] [-0.18764179944992065:0.23482204973697662] [-0.18111549317836761:0.14544185996055603] [-0.10562057793140411:0.15563836693763733] [-0.12620344758033752:0.18486645817756653] [-0.15265896916389465:0.074005663394927979] [-0.085669033229351044:0.17871208488941193] [-0.15824532508850098:0.089818201959133148] [-0.15032248198986053:0.12549035251140594] [-0.10644026845693588:0.19748957455158234] [-0.074351631104946136:0.3383585512638092] [-0.084563329815864563:0.15699954330921173] [-0.06707453727722168:0.50865042209625244] [-0.0718889981508255:0.16386552155017853] [-0.2116788774728775:0.078402489423751831] [-0.25523784756660461:0.08021814376115799] [-0.15646316111087799:0.29094824194908142] [-0.16508576273918152:0.097902566194534302] [-0.053936533629894257:0.22070106863975525] [-0.20470020174980164:0.07063593715429306] [-0.14902907609939575:0.24389578402042389] [-0.15167586505413055:0.10680804401636124] [-0.29861980676651001:0.13186058402061462] [0.19905838370323181:0.76207965612411499] [-0.04941132664680481:0.2675488293170929] [-0.072936639189720154:0.25195953249931335] [-0.13665717840194702:0.10739345848560333] [-0.11419985443353653:0.13783319294452667] [0.046599555760622025:0.27082353830337524] [-0.1434149295091629:0.29455837607383728] [-0.17476917803287506:0.16213336586952209] [-0.13353115320205688:0.13993585109710693] [-0.14478509128093719:0.072889626026153564] [-0.11730607599020004:0.082967959344387054] [-0.16297136247158051:0.087546579539775848] [-0.10618346929550171:0.16826774179935455] [-0.091201901435852051:0.15127047896385193] [-0.17577055096626282:0.10719349235296249] [-0.042083356529474258:0.14786674082279205] [-0.10005446523427963:0.17299087345600128] [-0.066874347627162933:0.1569722443819046] [-0.13921232521533966:0.10279508680105209] [-0.25254151225090027:0.054271958768367767] [-0.23007757961750031:0.065849833190441132] [-0.2101435512304306:0.20296981930732727] [-0.13177669048309326:0.098087377846240997] [-0.1998542994260788:0.054119192063808441] [-0.14923059940338135:0.08806900680065155] [-0.11733171343803406:0.16269570589065552] [-0.057044297456741333:0.14845378696918488] [-0.14946146309375763:0.080657683312892914] [-0.21573610603809357:0.14093516767024994] [-0.12850053608417511:0.15164938569068909] [-0.12190929800271988:0.13635164499282837] [-0.17134061455726624:0.1165807917714119] [-0.21197392046451569:0.14115142822265625] [-0.10637301951646805:0.13168293237686157] [-0.26935485005378723:0.14433002471923828] [-0.18945528566837311:0.21044006943702698] [-0.11185048520565033:0.1352551132440567] [-0.12710955739021301:0.11018166691064835] [-0.21841946244239807:0.16752281785011292] [-0.15839287638664246:0.084889397025108337] [-0.040653258562088013:0.2565271258354187] [-0.13830120861530304:0.24227006733417511] [-0.11256405711174011:0.060234341770410538] [-0.066590927541255951:0.30397483706474304] [-0.1536937803030014:0.074479870498180389] [-0.070590265095233917:0.23261336982250214] [-0.22972765564918518:0.10099882632493973] [-0.05407438799738884:0.25504466891288757] [-0.28339949250221252:0.027874866500496864] [-0.10434897989034653:0.27008125185966492] [-0.16180969774723053:0.082220323383808136] [-0.15022385120391846:0.20322413742542267] [-0.053934913128614426:0.229505255818367] [-0.13228544592857361:0.13535799086093903] [-0.18365313112735748:0.068304158747196198] [-0.20409055054187775:0.065768547356128693] [-0.1321098655462265:0.19924423098564148] [-0.15259535610675812:0.09411165863275528] [-0.029680298641324043:0.24081921577453613] [-0.20215602219104767:0.14795809984207153] [-0.18202865123748779:0.11820719391107559] [-0.19721603393554688:0.17463001608848572] [-0.3666660487651825:0.38866722583770752] [-0.1255171149969101:0.13067211210727692] [-0.18195188045501709:0.15262424945831299] [-0.051435317844152451:0.18796506524085999] [-0.090784482657909393:0.13584649562835693] [-0.21423754096031189:0.14218278229236603] [-0.081386789679527283:0.20080021023750305] [-0.16231250762939453:0.11658250540494919] [-0.1174287348985672:0.15528050065040588] [-0.085378170013427734:0.13927923142910004] [-0.11945468932390213:0.087385252118110657] [-0.087087012827396393:0.11349933594465256] [-0.15541142225265503:0.13234809041023254] [-0.11954201757907867:0.12517863512039185] [-0.086330212652683258:0.1967967301607132] [-0.10681122541427612:0.17350447177886963] [-0.092655465006828308:0.16408716142177582] [-0.080053873360157013:0.15893644094467163] [-0.25599667429924011:0.010286178439855576] [-0.14265166223049164:0.058988150209188461] [-0.13722972571849823:0.078004121780395508] [-0.21058854460716248:0.075603574514389038] [-0.16933265328407288:0.11758770793676376] [-0.29242643713951111:0.071473784744739532] [-0.051716476678848267:0.16617412865161896] [-0.086831860244274139:0.16817550361156464] [-0.062835894525051117:0.18104857206344604] [-0.20393496751785278:0.12635701894760132] [-0.047199651598930359:0.28670564293861389] [-0.10358676314353943:0.1465073823928833] [-0.11483993381261826:0.30368015170097351] [-0.12576037645339966:0.16421006619930267] [-0.16142986714839935:0.14366120100021362] [-0.10777841508388519:0.091938242316246033] [-0.20385076105594635:0.15393564105033875] [-0.11385117471218109:0.14548039436340332] [-0.11259434372186661:0.12411461025476456] [-0.092815175652503967:0.18819877505302429] [-0.13060617446899414:0.10736893117427826] [-0.19244174659252167:0.070252262055873871] [-0.11678082495927811:0.098929814994335175] [-0.2041761726140976:0.2141040563583374] [-0.24128906428813934:0.23529873788356781] [-0.20333503186702728:0.10490261018276215] [-0.17133165895938873:0.080986000597476959] [-0.1150016188621521:0.190689817070961] [-0.095917798578739166:0.14174351096153259] [-0.20928724110126495:0.047294601798057556] [-0.22518017888069153:0.2027047872543335] [-0.16365468502044678:0.21756020188331604] [-0.12515337765216827:0.11373215913772583] [-0.12629018723964691:0.14484782516956329] [-0.16325332224369049:0.080958634614944458] [-0.14231878519058228:0.093040838837623596] [-0.16154226660728455:0.044567201286554337] [-0.13228987157344818:0.13276155292987823] [-0.1655697226524353:0.097240753471851349] [-0.024487318471074104:0.17073073983192444] [-0.1000087559223175:0.15782967209815979] [-0.20491452515125275:0.13935813307762146] [-0.17302387952804565:0.10317488759756088] [-0.3887825608253479:0.052620589733123779] [-0.11057894676923752:0.12141754478216171] [-0.08229450136423111:0.19315958023071289] [-0.28810751438140869:0.1011069044470787] [-0.30877122282981873:0.12476462125778198] [-0.15671832859516144:0.13908948004245758] [-0.15098501741886139:0.11200463771820068] [-0.14897356927394867:0.14584621787071228] [-0.22193056344985962:0.068904466927051544] [-0.17456074059009552:0.14782142639160156] [-0.068442709743976593:0.16388086974620819] [-0.031370550394058228:0.18676522374153137] [-0.037599910050630569:0.18712402880191803] [-0.16452735662460327:0.14197996258735657] [-0.18691970407962799:0.10271629691123962] [-0.12744201719760895:0.18573597073554993] [-0.13807037472724915:0.077432431280612946] [-0.14196358621120453:0.21449495851993561] [0.0084053101018071175:0.19040705263614655] [-0.15224297344684601:0.18372015655040741] [-0.079059123992919922:0.19720940291881561] [-0.10959076881408691:0.15675249695777893] [-0.19110144674777985:0.090487286448478699] [-0.22359143197536469:0.02557128481566906] [-0.28854769468307495:0.048982642590999603] [-0.1096404641866684:0.082426339387893677] [-0.14586392045021057:0.12377559393644333] [-0.22393558919429779:0.068231195211410522] [-0.29735663533210754:0.11866455525159836] [-0.15739715099334717:0.092477351427078247] [-0.086809411644935608:0.18190419673919678] [-0.12672384083271027:0.25156682729721069] [-0.28932926058769226:0.021952169016003609] [-0.19347687065601349:0.090965330600738525] [-0.2664620578289032:0.013337011449038982] [0.0062250141054391861:0.2735079824924469] [-0.073736816644668579:0.1455075591802597] [-0.11776944249868393:0.22503617405891418] [-0.039032898843288422:0.21174353361129761] [-0.24724464118480682:0.072749912738800049] [-0.055967003107070923:0.15700793266296387] [-0.12830089032649994:0.14674954116344452] [-0.11982683092355728:0.11252959817647934] [-0.075014248490333557:0.13496097922325134] [-0.016789918765425682:0.22093141078948975] [-0.12807431817054749:0.12130052596330643] [-0.16933242976665497:0.17346200346946716] [-0.050510317087173462:0.19572064280509949] [-0.10946360975503922:0.20064346492290497] [-0.19005961716175079:0.11208577454090118] [-0.073558390140533447:0.15395326912403107] [0.19433903694152832:0.52866560220718384] [-0.56592023372650146:-0.0046265698038041592] [-0.10671816766262054:0.40106847882270813] [-0.055576812475919724:0.21286053955554962] [-0.15998587012290955:0.2079823762178421] [-0.018077893182635307:0.26618656516075134] [-0.10060261934995651:0.17074902355670929] [-0.08224138617515564:0.11307302862405777] [-0.039722178131341934:0.16759935021400452] [-0.0099609820172190666:0.24816496670246124] [-0.051589194685220718:0.2408333420753479] [-0.21434475481510162:0.088842861354351044] [-0.071489699184894562:0.16247308254241943] [-0.17472894489765167:0.12792907655239105] [-0.048347964882850647:0.17567446827888489] [-0.060502547770738602:0.27748793363571167] [-0.1704411506652832:0.10405779629945755] [-0.1193840429186821:0.16667480766773224] [-0.12848684191703796:0.13923126459121704] [-0.0913844034075737:0.2680419385433197] [-0.098164424300193787:0.16190415620803833] [-0.15386606752872467:0.14310024678707123] [-0.24826042354106903:0.13898973166942596] [-0.15468502044677734:0.1546141505241394] [-0.16070502996444702:0.086895130574703217] [-0.11123073846101761:0.094000138342380524] [-0.20270004868507385:0.26752036809921265] [-0.089222721755504608:0.19616088271141052] [-0.12094408273696899:0.078647121787071228] [-0.092793785035610199:0.1333606094121933] [-0.18943361937999725:0.33017346262931824] [-0.12025027722120285:0.16238245368003845] [-0.15643754601478577:0.11244042217731476] [-0.068534046411514282:0.1594659686088562] [-0.20123334228992462:0.11391271650791168] [-0.10881967842578888:0.18779735267162323] [-0.28115105628967285:0.09192291647195816] [-0.2232460230588913:0.11877082288265228] [-0.079332061111927032:0.23923900723457336] [-0.13639920949935913:0.084194429218769073] [-0.10269123315811157:0.1913253515958786] [-0.078075461089611053:0.17260059714317322] [-0.19844713807106018:0.1787731796503067] [-0.08151940256357193:0.15474990010261536] [-0.096576958894729614:0.21214935183525085] [-0.09619063138961792:0.13207137584686279] [-0.13516989350318909:0.13504715263843536] [-0.093718387186527252:0.22893629968166351] [-0.094010889530181885:0.11330785602331161] [-0.19160503149032593:0.2785656750202179] [-0.056525319814682007:0.25915539264678955] [-0.081329599022865295:0.18532778322696686] [-0.082549512386322021:0.32743626832962036] [-0.18046268820762634:0.024078402668237686] [-0.10341168195009232:0.13727258145809174] [-0.10017795115709305:0.22813515365123749] [-0.19584253430366516:0.1193123459815979] [-0.15346404910087585:0.14020343124866486] [-0.21041205525398254:0.082447215914726257] [-0.095223583281040192:0.20314933359622955] [-0.076406382024288177:0.18454515933990479] [-0.15917298197746277:0.072156049311161041] [-0.26042649149894714:0.060094211250543594] [-0.14226923882961273:0.11066347360610962] [-0.28601431846618652:0.050780013203620911] [0.0061466158367693424:0.27239426970481873] [-0.095675095915794373:0.17047432065010071] [-0.17822794616222382:0.098563171923160553] [-0.34271723031997681:0.13598355650901794] [-0.19458884000778198:0.38557621836662292] [-0.17147922515869141:0.0800204798579216] [-0.095572814345359802:0.18636935949325562] [-0.10173897445201874:0.20198944211006165] [-0.17589777708053589:0.07252608984708786] [-0.13504187762737274:0.1655590832233429] [-0.13589577376842499:0.13242973387241364] [-0.10213154554367065:0.20518021285533905] [-0.11283945292234421:0.20263400673866272] [-0.2008376270532608:0.034602697938680649] [-0.15118031203746796:0.12967498600482941] [-0.16184177994728088:0.087900564074516296] [-0.17091071605682373:0.12076161056756973] [-0.10638302564620972:0.22832337021827698] [-0.022004690021276474:0.16912350058555603] [-0.2134469747543335:0.076853476464748383] [-0.15111386775970459:0.15579758584499359] [-0.14586454629898071:0.047014195472002029] [-0.083291314542293549:0.18604221940040588] [-0.17769418656826019:0.14169321954250336] [-0.15376156568527222:0.12822309136390686] [-0.22957485914230347:0.10445065796375275] [-0.2216106653213501:0.088732868432998657] [-0.04168831929564476:0.1961839497089386] [-0.1783628910779953:0.11207292973995209] [-0.20941571891307831:0.15399463474750519] [-0.30053508281707764:0.11802302300930023] [-0.19083602726459503:0.092938564717769623] [-0.078731834888458252:0.19677264988422394] [-0.20966404676437378:0.0082792928442358971] [-0.34492504596710205:0.056907188147306442] [-0.10482247173786163:0.091807171702384949] [-0.19929543137550354:0.046177975833415985] [0.0083813266828656197:0.24918103218078613] [-0.23258461058139801:0.073867656290531158] [-0.27532252669334412:0.075191840529441833] [-0.16563971340656281:0.085322998464107513] [-0.13041944801807404:0.20587806403636932] [-0.12372250109910965:0.086421579122543335] [-0.13690614700317383:0.094526477158069611] [-0.19410189986228943:0.086477726697921753] [-0.25507968664169312:0.040157683193683624] [-0.30881416797637939:0.096405781805515289] [-0.10469026863574982:0.11462921649217606] [-0.043807979673147202:0.18111637234687805] [-0.12921878695487976:0.14649449288845062] [-0.1420426219701767:0.23350393772125244] [-0.24276533722877502:0.1014639288187027] [-0.074242904782295227:0.24002338945865631] [-0.10027217119932175:0.11875278502702713] [-0.25412175059318542:0.092947959899902344] [-0.14231456816196442:0.18706539273262024] [-0.24127337336540222:0.19979719817638397] [-0.13217096030712128:0.18575772643089294] [-0.26086440682411194:0.065219171345233917] [-1.6421074867248535:-0.16883915662765503] [-0.034273084253072739:0.24310240149497986] [-0.12283002585172653:0.13640217483043671] [-0.058924846351146698:0.11462400108575821] [-0.066167473793029785:0.13121244311332703] [-0.27003583312034607:0.015427208505570889] [-0.10648304969072342:0.11922755837440491] [-0.094327256083488464:0.17332176864147186] [-0.13758599758148193:0.13510467112064362] [-0.076713599264621735:0.13857161998748779] [-0.11121249198913574:0.065943904221057892] [-0.05073518306016922:0.11934413760900497] [-0.1616785079240799:0.084053024649620056] [-0.19519592821598053:0.070416882634162903] [-0.088830657303333282:0.21145540475845337] [-0.21194140613079071:0.17381337285041809] [-0.14660286903381348:0.1338471919298172] [-0.10483182966709137:0.16658009588718414] [-0.16679376363754272:0.093896426260471344] [-0.12934745848178864:0.10068051517009735] [-0.27385362982749939:0.14111694693565369] [-0.091989383101463318:0.13812503218650818] [-0.10857623815536499:0.13623557984828949] [-0.15497934818267822:0.14008960127830505] [-0.056585505604743958:0.19877065718173981] [-0.16027924418449402:0.13614040613174438] [-0.27911600470542908:0.040284030139446259] [-0.21081770956516266:0.048029899597167969] [-0.11218589544296265:0.11723078787326813] [-0.044595323503017426:0.17712073028087616] [-0.097086898982524872:0.11594250053167343] [-0.18438003957271576:0.045809753239154816] [-0.17955426871776581:0.12230361253023148] [-0.11526527255773544:0.12633387744426727] [-0.096161745488643646:0.14292345941066742] [-0.099218659102916718:0.18981429934501648] [-0.14345623552799225:0.1100870817899704] [-0.13182333111763:0.14304959774017334] [-0.25409114360809326:0.080427564680576324] [-0.089417107403278351:0.18301910161972046] [-0.089173011481761932:0.20550179481506348] [0.18404899537563324:0.23109082877635956] [-0.14355611801147461:0.11973389983177185] [-0.048998784273862839:0.38566496968269348] [-0.17609328031539917:0.089479722082614899] [-0.20047658681869507:0.20906385779380798] [-0.12499233335256577:0.14037230610847473] [-0.14940907061100006:0.10159032046794891] [-0.14550493657588959:0.26813182234764099] [-0.13527445495128632:0.11250940710306168] [-0.13595731556415558:0.15027722716331482] [-0.12296759337186813:0.14968648552894592] [-0.13101010024547577:0.286399245262146] [-0.21345186233520508:0.026760173961520195] [-0.15946538746356964:0.060522545129060745] [-0.14343953132629395:0.12731564044952393] [-0.098942428827285767:0.19087514281272888] [-0.14408972859382629:0.10081999003887177] [-0.18853764235973358:0.26634049415588379] [0.0068462677299976349:0.31550383567810059] [-0.10263019055128098:0.10561501234769821] [-0.029946386814117432:0.17088812589645386] [-0.11707981675863266:0.18209747970104218] [-0.15803515911102295:0.13865379989147186] [-0.14476816356182098:0.10228963196277618] [-0.18486148118972778:0.12640534341335297] [-0.10304094105958939:0.27640455961227417] [-0.23101723194122314:0.064124509692192078] [-0.18027602136135101:0.1701357364654541] [-0.10797301679849625:0.1015714630484581] [-0.14045810699462891:0.13318252563476562] [-0.17685189843177795:0.043029643595218658] [-0.13733424246311188:0.1371881514787674] [-0.17821528017520905:0.10719413310289383] [-0.073288172483444214:0.13043874502182007] [-0.041143517941236496:0.30399304628372192] [-0.15566471219062805:0.13534519076347351] [-0.11284342408180237:0.1893182098865509] [-0.17320342361927032:0.090582199394702911] [0.0053493292070925236:0.26266995072364807] [-0.067357033491134644:0.10359252989292145] [-0.11253973096609116:0.20326700806617737] [-0.10738422721624374:0.29279690980911255] [-0.054205317050218582:0.22567705810070038] [-0.052073579281568527:0.14951422810554504] [-0.17858296632766724:0.093756817281246185] [-0.18875803053379059:0.13056479394435883] [-0.19265459477901459:0.14483776688575745] [-0.1473221629858017:0.15497153997421265] [-0.037148714065551758:0.40669399499893188] [-0.13482578098773956:0.083232201635837555] [-0.03169795498251915:0.20964796841144562] [-0.14229439198970795:0.16348209977149963] [-0.13320581614971161:0.40976378321647644] [-0.14486898481845856:0.046487174928188324] [-0.0429803766310215:0.16664685308933258] [-0.14150802791118622:0.25587230920791626] [-0.15399298071861267:0.1494288444519043] [-0.86204952001571655:-0.29494163393974304] [-0.14345037937164307:0.039236217737197876] [-0.014867318794131279:0.2308843582868576] [-0.2233625054359436:0.10332519561052322] [-0.10295938700437546:0.087903223931789398] [-0.12098988890647888:0.15262752771377563] [-0.15578950941562653:0.21154849231243134] [-0.12498574703931808:0.082545928657054901] [-0.18054755032062531:0.18775971233844757] [-0.22636054456233978:0.042780749499797821] [-0.21017426252365112:0.28867959976196289] [-0.052167318761348724:0.15840233862400055] [-0.024807844310998917:0.20707337558269501] [-0.29037877917289734:0.12638360261917114] [-0.1371215283870697:0.1137729287147522] [-0.082184664905071259:0.11356060951948166] [-0.12751089036464691:0.10753802955150604] [-0.19914482533931732:0.086593970656394958] [-0.10268101096153259:0.13539077341556549] [-0.62962138652801514:0.087719626724720001] [-0.1087849959731102:0.094590991735458374] [-0.20038294792175293:0.071694120764732361] [-0.11827118694782257:0.38311094045639038] [-0.15473857522010803:0.28855550289154053] [-0.26931372284889221:0.099038071930408478] [-0.086389422416687012:0.20159806311130524] [-0.16195027530193329:0.15665405988693237] [-0.12460056692361832:0.15765088796615601] [-0.12375277280807495:0.14156770706176758] [-0.1154339388012886:0.23725204169750214] [-0.093558065593242645:0.19495755434036255] [-0.092040553689002991:0.17283050715923309] [-0.1262378990650177:0.18216606974601746] [-0.037891734391450882:0.21553398668766022] [-0.13470390439033508:0.20865654945373535] [-0.11800314486026764:0.40642771124839783] [-0.10608799755573273:0.20402407646179199] [10.063235282897949:12.405439376831055] [-0.16625940799713135:0.13507086038589478] [-0.057309456169605255:0.14414188265800476] [-0.13013644516468048:0.10202769190073013] [-0.13283684849739075:0.16265632212162018] [-0.17959730327129364:0.060268498957157135] [-0.23176373541355133:0.13024309277534485] [-0.22758135199546814:0.11029433459043503] [-0.1727946400642395:0.13958178460597992] [0.022356504574418068:0.2977759838104248] [-0.10456837713718414:0.090896308422088623] [-0.19203187525272369:0.1173534095287323] [-0.20037494599819183:0.06322692334651947] [-0.19276557862758636:0.11173457652330399] [-0.076243378221988678:0.13513831794261932] [-0.13916546106338501:0.24429987370967865] [-0.21764244139194489:0.084353767335414886] [-0.14732332527637482:0.12942369282245636] [-0.074220634996891022:0.18061092495918274] [-0.13633741438388824:0.067836262285709381] [-0.15602576732635498:0.22489483654499054] [-0.10019656270742416:0.19900411367416382] [-0.26383861899375916:0.14588448405265808] [-0.099037274718284607:0.24824030697345734] [-0.18879948556423187:0.054493393748998642] [-0.15755902230739594:0.22466406226158142] [-0.10557755827903748:0.17158252000808716] [-0.17606081068515778:0.11072804778814316] [-0.088654153048992157:0.14534273743629456] [-0.11524093896150589:0.14524340629577637] [-0.11745650321245193:0.25617691874504089] [-0.10962235182523727:0.21285617351531982] [-0.037371449172496796:0.2349763810634613] [-0.1770351231098175:0.18886426091194153] [-0.045509103685617447:0.24817243218421936] [-0.16259078681468964:0.15066318213939667] [-0.28374594449996948:0.14728330075740814] [-0.049499776214361191:0.17799168825149536] [-0.070851333439350128:0.18265500664710999] [-0.082418099045753479:0.2286122590303421] [-0.090761825442314148:0.16493567824363708] [-0.076326228678226471:0.1299031674861908] [-0.061800789088010788:0.16225431859493256] [-0.16936641931533813:0.14991365373134613] [-0.014713185839354992:0.18652153015136719] [-0.070705637335777283:0.19406704604625702] [-0.17843550443649292:0.1217208132147789] [0.013872754760086536:0.29396000504493713] [-0.11997437477111816:0.11731915175914764] [-0.028928754851222038:0.25850918889045715] [-0.028815314173698425:0.18960197269916534] [-0.35775399208068848:0.06738695502281189] [-0.043766539543867111:0.2204059362411499] [-0.1248943880200386:0.15998001396656036] [-0.11243744939565659:0.1915225088596344] [-0.12437716126441956:0.14225354790687561] [-0.09548456221818924:0.17509640753269196] [-0.14865012466907501:0.078432276844978333] [-0.046687863767147064:0.196102574467659] [-0.20640213787555695:0.19447821378707886] [-0.14833715558052063:0.091104283928871155] [-0.016703944653272629:0.275462806224823] [-0.13669531047344208:0.073063015937805176] [-0.088590353727340698:0.19654324650764465] [-0.20223738253116608:0.16926713287830353] [-0.047565814107656479:0.21199919283390045] [-0.0045560360886156559:0.41429796814918518] [-0.070819959044456482:0.21026590466499329] [-0.26898312568664551:0.075085915625095367] [-0.1123417392373085:0.22264862060546875] [-0.16095298528671265:0.10289811342954636] [-0.27661794424057007:0.025931926444172859] [-0.19491676986217499:0.059114459902048111] [-0.3255479633808136:0.15532374382019043] [-0.1676737368106842:0.21672223508358002] [-0.14626874029636383:0.28833639621734619] [-0.28384667634963989:0.2017030268907547] [-0.1029418557882309:0.11648546904325485] [-0.1520172506570816:0.14518827199935913] [-0.31044775247573853:0.12163283675909042] [-0.082876391708850861:0.12963156402111053] [-0.087825097143650055:0.12407175451517105] [-0.1564825177192688:0.10552818328142166] [-0.15461611747741699:0.093256518244743347] [-0.12997090816497803:0.20038236677646637] [-0.066586263477802277:0.16141895949840546] [-0.12417928874492645:0.22819735109806061] [-0.071781955659389496:0.23071800172328949] [-0.16807270050048828:0.10277052968740463] [-0.32978993654251099:0.11966495960950851] [-0.39540198445320129:0.13090872764587402] [-0.13116161525249481:0.15848089754581451] [-0.28243637084960938:0.11075803637504578] [-0.18869920074939728:0.083399347960948944] [-0.11360502988100052:0.22738078236579895] [-0.11754675954580307:0.10422529280185699] [-0.12452453374862671:0.19756507873535156] [-0.24402719736099243:0.034652650356292725] [-0.07244427502155304:0.30306071043014526] [-0.080452851951122284:0.19621029496192932] [-0.22402611374855042:0.079706862568855286] [-0.18351544439792633:0.15227741003036499] [-0.12734107673168182:0.095543913543224335] [-0.027428479865193367:0.21174809336662292] [-0.093398697674274445:0.11668729037046432] [-0.10837811231613159:0.1355498880147934] [-0.2871728241443634:0.20201413333415985] [-0.10576702654361725:0.16498821973800659] [-0.17963524162769318:0.18540556728839874] [-0.079801663756370544:0.12898430228233337] [-0.22121432423591614:0.057617977261543274] [-0.071454994380474091:0.2367597371339798] [-0.1306951642036438:0.18224573135375977] [-0.19281682372093201:0.36760655045509338] [-0.12717580795288086:0.1981024444103241] [-0.17560459673404694:0.14982348680496216] [-0.10816512256860733:0.087090492248535156] [-0.10946270823478699:0.10487591475248337] [-0.062957018613815308:0.15251477062702179] [-0.051711674779653549:0.19795015454292297] [-0.17451091110706329:0.044023327529430389] [-0.13342106342315674:0.074118949472904205] [-0.14453129470348358:0.26818493008613586] [-0.16197609901428223:0.096319101750850677] [-0.13092154264450073:0.060143467038869858] [-0.16754359006881714:0.076814495027065277] [-0.11488915234804153:0.19597819447517395] [-0.10346804559230804:0.17059902846813202] [-0.17043526470661163:0.11098156124353409] [-0.20525473356246948:0.074227981269359589] [-0.16870798170566559:0.11924751102924347] [-0.064555808901786804:0.14294318854808807] [-0.12033193558454514:0.19009260833263397] [-0.15266163647174835:0.15152288973331451] [-0.089632228016853333:0.21308813989162445] [-0.15019170939922333:0.066276371479034424] [-0.24990452826023102:0.096911609172821045] [-0.016254518181085587:0.19852788746356964] [-0.094543494284152985:0.23354668915271759] [-0.066963441669940948:0.13826076686382294] [-0.19172455370426178:0.19038574397563934] [-0.13549497723579407:0.14744898676872253] [-0.17507514357566833:0.083704106509685516] [-0.20884911715984344:0.032134614884853363] [-0.14933636784553528:0.1631670743227005] [-0.15179352462291718:0.19837453961372375] [-0.085827827453613281:0.19171801209449768] [-0.16732917726039886:0.21961025893688202] [-0.057796597480773926:0.24839182198047638] [-0.1930573582649231:0.0678819939494133] [-0.16589640080928802:0.20653232932090759] [-0.072793953120708466:0.22192570567131042] [-0.17516811192035675:0.28078162670135498] [-0.17455178499221802:0.12559212744235992] [-0.14507366716861725:0.18827211856842041] [-0.15417329967021942:0.078675977885723114] [-0.15588340163230896:0.064956538379192352] [-0.080141231417655945:0.16136494278907776] [-0.11600974202156067:0.076913081109523773] [-0.20103587210178375:0.10897525399923325] [-0.095261029899120331:0.20633400976657867] [-0.30937793850898743:0.17987969517707825] [-0.13270621001720428:0.2014756053686142] [-0.19955658912658691:0.19315464794635773] [-0.20835034549236298:0.24475286900997162] [-0.10576902329921722:0.11786698549985886] [-0.26478099822998047:0.13854764401912689] [-0.085441276431083679:0.13840997219085693] [-0.10450951009988785:0.21687997877597809] [-0.12902030348777771:0.099957242608070374] [-0.094465568661689758:0.16175034642219543] [-0.12552796304225922:0.10132066160440445] [-0.1987587958574295:0.11187480390071869] [-0.18271329998970032:0.034525725990533829] [-0.092994444072246552:0.18499287962913513] [0.020335474982857704:0.20636211335659027] [-0.10630358010530472:0.39669278264045715] [-0.2533491849899292:0.074990160763263702] [-0.13131025433540344:0.15933182835578918] [-0.17355555295944214:0.19878441095352173] [-0.21638002991676331:0.047836415469646454] [-0.11751764267683029:0.20988751947879791] [-0.16034255921840668:0.081369079649448395] [-0.51346206665039062:0.043361838907003403] [-0.076994583010673523:0.23402954638004303] [-0.23645789921283722:0.097207106649875641] [-0.11285009980201721:0.093876548111438751] [-0.26829090714454651:0.12942725419998169] [-0.069911129772663116:0.23769669234752655] [-0.20678363740444183:0.03449331596493721] [-0.13682381808757782:0.13889853656291962] [-0.2059418112039566:0.17665615677833557] [-0.057434394955635071:0.1809561550617218] [-0.16326354444026947:0.22748191654682159] [-0.12199395895004272:0.17993786931037903] [-0.28485223650932312:0.32419100403785706] [-0.23805376887321472:0.08387649804353714] [-0.10241600871086121:0.16192491352558136] [-0.30879884958267212:0.10025708377361298] [-0.40403655171394348:0.15345074236392975] [-0.21884414553642273:0.0037026978097856045] [-0.13334453105926514:0.20190313458442688] [-0.26431095600128174:0.13335707783699036] [-0.018251994624733925:0.21242105960845947] [-0.2886471152305603:0.13593314588069916] [-0.12448980659246445:0.19905580580234528] [-0.031377539038658142:0.26938298344612122] [-0.063575178384780884:0.2563135027885437] [-0.23742242157459259:0.095165014266967773] [-0.23753805458545685:0.15660688281059265] [-0.17123082280158997:0.080295071005821228] [-0.19165904819965363:0.075965657830238342] [-0.068455517292022705:0.16702726483345032] [-0.11468025296926498:0.16883501410484314] [-0.11402751505374908:0.20252743363380432] [-0.075330547988414764:0.16435378789901733] [-0.090634852647781372:0.21545204520225525] [-0.16848967969417572:0.060323655605316162] [-0.23063249886035919:0.16554129123687744] [-0.074072584509849548:0.1253625899553299] [-0.14077800512313843:0.17000593245029449] [-0.1691746711730957:0.29807963967323303] [-0.089528150856494904:0.15780554711818695] [-0.12590563297271729:0.13317219913005829] [-0.10336822271347046:0.15990035235881805] [-0.10435144603252411:0.13785126805305481] [-0.18329246342182159:0.14523462951183319] [-0.14310665428638458:0.1903519481420517] [-0.14132507145404816:0.10101030766963959] [-0.14762859046459198:0.096490807831287384] [-0.17201428115367889:0.117793008685112] [-0.21428804099559784:0.21818055212497711] [-0.13314312696456909:0.080406889319419861] [-0.097658850252628326:0.17251546680927277] [-0.24853609502315521:0.0031653170008212328] [-0.16047769784927368:0.13418178260326385] [-0.091177977621555328:0.11076279729604721] [-0.074109822511672974:0.44893136620521545] [-0.074000813066959381:0.2295159250497818] [-0.21719719469547272:0.026774400845170021] [-0.15713991224765778:0.12859490513801575] [-0.52121692895889282:0.068025872111320496] [-0.22495006024837494:0.048887640237808228] [-0.1903231292963028:0.12955692410469055] [-0.061443235725164413:0.16980108618736267] [-0.18948711454868317:0.068746209144592285] [-0.21357168257236481:0.10062326490879059] [-0.21773597598075867:0.21665586531162262] [-0.097142204642295837:0.17519673705101013] [-0.07738465815782547:0.14233201742172241] [-0.042238015681505203:0.19795787334442139] [-0.29027456045150757:0.063593998551368713] [-0.079368904232978821:0.18885676562786102] [-0.1720816045999527:0.11649275571107864] [-0.26395255327224731:0.064429700374603271] [-0.15460777282714844:0.16432641446590424] [-0.12941664457321167:0.22394293546676636] [0.15995654463768005:0.71730142831802368] [-0.19874484837055206:0.14138568937778473] [-0.093025490641593933:0.19887761771678925] [-0.028058353811502457:0.29671385884284973] [-0.22511911392211914:0.092391237616539001] [0.13904428482055664:1.0120881795883179] [-0.11190029978752136:0.20002718269824982] [-0.12561695277690887:0.2344469428062439] [-0.24652388691902161:0.3052559494972229] [-0.005640129093080759:0.24179963767528534] [-0.11873985081911087:0.12874387204647064] [-0.070633783936500549:0.15847881138324738] [-0.099675975739955902:0.17472055554389954] [-0.19113323092460632:0.25173214077949524] [-0.11283882707357407:0.1871437132358551] [-0.17727382481098175:0.0754966139793396] [-0.12705007195472717:0.31650745868682861] [-0.073465131223201752:0.17728839814662933] [-0.077028132975101471:0.16619487106800079] [-0.14109016954898834:0.078850403428077698] [-0.25936353206634521:0.29957526922225952] [-0.13707216084003448:0.10578995198011398] [-0.16032244265079498:0.075381539762020111] [-0.19482035934925079:0.28726929426193237] [-0.25834605097770691:0.010599513538181782] [-0.10646601021289825:0.23242731392383575] [-0.076495617628097534:0.25063210725784302] [-0.14139974117279053:0.058294955641031265] [-0.15086877346038818:0.12227471172809601] [-0.17065158486366272:0.20248390734195709] [-0.14978870749473572:0.10247141867876053] [-0.15662799775600433:0.13417337834835052] [-0.18680092692375183:0.076259031891822815] [-0.14009733498096466:0.19865337014198303] [-0.21759644150733948:0.17809435725212097] [-0.12411205470561981:0.20560061931610107] [-0.10656680911779404:0.10745636373758316] [-0.083035141229629517:0.1189349889755249] [-0.17765739560127258:0.11391151696443558] [-0.13876153528690338:0.22113731503486633] [-0.070836737751960754:0.15663699805736542] [-0.066387243568897247:0.17021562159061432] [-0.068039260804653168:0.28358253836631775] [-0.18008588254451752:0.12521082162857056] [-0.022127686068415642:0.30556419491767883] [-0.071955911815166473:0.28810635209083557] [-0.21785295009613037:0.18138310313224792] [-0.1961786299943924:0.082853756844997406] [-0.21596738696098328:0.095523841679096222] [-0.17670868337154388:0.13549451529979706] [-0.15033121407032013:0.13228605687618256] [-0.088695727288722992:0.16133084893226624] [-0.098238468170166016:0.1674668937921524] [-0.13517354428768158:0.12220224738121033] [-0.38145527243614197:0.029336521402001381] [-0.11937496811151505:0.17068199813365936] [-0.16738426685333252:0.21698351204395294] [-0.1997542679309845:0.13940323889255524] [-0.17148281633853912:0.17643876373767853] [-0.088318206369876862:0.1863987147808075] [-0.14534449577331543:0.072140224277973175] [-0.10258878767490387:0.19917568564414978] [-0.1676219254732132:0.093467555940151215] [-0.18316321074962616:0.1629997044801712] [-0.093685604631900787:0.17089201509952545] [-0.09464959055185318:0.32371941208839417] [-0.10584167391061783:0.15828266739845276] [-0.073286339640617371:0.4592042863368988] [-0.089355669915676117:0.17260479927062988] [-0.19813250005245209:0.088813349604606628] [-0.23267228901386261:0.07879183441400528] [-0.16077414155006409:0.28353527188301086] [-0.16215977072715759:0.08895612508058548] [-0.021819086745381355:0.2043827623128891] [-0.21474263072013855:0.058786176145076752] 